// Neural Network File Format by Kyle Julian, Stanford 2016
3,12,25,256,
12,256,256,25,
0,
0
0
0
0
0.24342039,0.03698453,0.19234857,0.10411503,-0.31393856,0.27964130,-0.37338990,-0.01077605,-0.02687054,-0.31185541,-0.27498862,-0.15474080,
0.09474183,-0.18618044,-0.16092567,0.79352170,0.04612894,-0.15631668,-0.41655269,-0.19753544,-0.50499117,0.09025187,-0.11526605,0.30972815,
-0.03327152,-0.00354111,0.32012847,-0.26817217,0.33402857,0.14415485,-0.17666917,0.10265028,0.27059028,-0.22408052,0.47844431,0.37963778,
0.18717769,-0.07567682,-0.21392234,0.44736877,-0.20881714,-0.21584181,-0.95370269,0.09519583,0.08861021,0.23573904,-0.58765590,0.29661369,
-0.05903611,-0.07485959,0.22141784,-0.13631903,0.08233561,0.19297576,-0.11472937,0.18749589,0.34593970,-0.01387564,-0.10751183,-0.38536778,
-0.19763248,0.14920694,-0.89628541,0.82243091,0.66979420,0.01197862,-0.14606585,-0.80431157,-0.83896488,-0.12563531,0.27447221,-0.09390536,
-0.18952511,0.08675896,0.58501989,0.07137637,-0.33525881,-0.22796196,0.14825888,0.00298672,0.64664173,-0.06678139,-0.15030190,0.01966968,
-0.60436511,0.27370209,0.11342860,-0.00557321,0.93937367,-0.20516025,-0.11828045,0.18360135,0.09912047,0.24917746,-0.80202836,0.45549059,
-0.11602686,0.02889818,0.31391841,-0.38981232,-0.11787780,-0.25988024,-0.14975335,-0.22205286,0.51521128,-0.53305858,0.08265539,0.07085665,
0.25415137,0.17980388,-0.56963766,0.56033772,-0.14155769,-0.14439449,-0.45982453,-0.04860100,-1.06647575,-0.02640180,-1.32623458,0.18849830,
0.28577200,-0.00332142,-0.71536911,0.77301234,0.31600338,-0.14170361,-0.33574003,0.08471196,-0.29872072,0.20568877,-0.28461799,-0.02888065,
-0.14297947,0.28899404,-0.05560604,0.17757311,0.11009854,-0.36315271,0.30319953,-0.01927566,-0.10052770,0.18978062,-0.15302448,0.05183659,
0.07714716,0.06289345,-0.05173076,-0.02736632,-0.41291144,-0.42825851,0.20647129,-0.54133290,-0.42431352,-0.25253743,0.03479963,0.21659403,
-0.06316742,-0.16169119,0.44120142,0.16834694,-0.18917471,-0.23896810,-0.11841329,0.38543952,0.05928104,0.54821855,-0.85316128,-0.06996710,
0.02126128,0.08398431,-0.06244740,-0.07327045,0.24353634,0.16663958,-0.30409297,0.27851889,-0.09273155,0.49519369,-0.18613820,-0.31635699,
-0.04034305,0.26358426,0.30332655,-0.26882651,0.25045362,0.28712553,0.11858355,0.16450089,0.19951203,-0.17859825,-0.11729383,0.20671901,
-0.05424615,0.18422464,0.15360361,0.74747998,-0.81696838,0.12680645,-0.19394648,-0.12979190,-0.11372492,0.02277949,0.19493325,-0.38350472,
-0.15640827,-0.22866789,0.32734784,-0.55699873,0.02096252,0.09989369,0.41402391,0.28772029,0.30100965,0.27904958,-0.41859299,0.06082145,
-0.09565403,-0.02265494,-0.39537081,0.04086389,0.27809376,-0.00155309,0.32257268,0.17258684,-0.09489602,0.10218709,-0.35816935,-0.01269043,
0.25878417,-0.05569805,0.28268284,-0.09722571,-0.61744887,-0.28206775,0.02129702,0.52501684,0.56003767,0.27634418,-0.57045633,0.26172829,
0.02642648,0.12726785,0.13381878,0.20566523,0.35274398,-0.07869855,-0.21974111,0.04505697,-0.18041283,0.38165155,-0.47657904,-0.31080115,
0.19039527,0.08142313,-0.36107057,0.09179512,-0.47246590,0.01674167,-1.02365303,0.31955335,-0.20088093,-0.16588169,0.36348960,-0.37389609,
-0.25951698,0.22676533,-0.01426890,0.04231705,-0.30327758,-0.11056815,-0.03089801,0.07171755,0.18490349,0.20124149,0.05471483,0.09711417,
-0.07005049,-0.04270198,0.32296798,-0.56489962,0.85410440,-0.08562294,-0.02899232,0.07878178,0.02309682,0.27786520,0.28900301,-0.07149124,
0.01125700,0.28573367,-0.27370393,0.47241053,0.64399773,0.14917928,-0.19023246,-0.06834353,-0.25308898,0.28286445,-0.14295651,0.25244945,
0.01537462,-0.20830576,0.35350034,-0.04272186,0.44927314,-0.11205499,0.12048194,-0.18409607,0.19605844,0.26489925,0.00706424,-0.16376337,
-0.83389598,0.35081747,0.66347128,-0.24782427,-0.13534869,0.00199896,0.15600374,0.04174026,0.31433320,0.05390213,0.03807903,-0.18927808,
-0.00165747,-0.24168554,0.16334513,-0.50522208,0.33314741,-0.17753986,0.27530795,-0.31383914,0.49116358,0.22491945,0.02208581,-0.24361683,
-0.15036163,0.17957555,0.18144411,0.09042905,0.24920915,-0.09579952,-0.09639766,-0.06133998,-0.15575311,-0.18987159,-0.10164861,0.03195202,
-0.23212841,-0.26076749,0.26553237,-0.23046555,0.25400558,0.19642031,0.39531872,0.27325687,0.37290892,0.26678842,-0.39663374,-0.28779790,
-0.32206300,-0.26948684,0.25484118,-0.67905635,-0.00011187,0.04277349,0.27285671,-0.05117262,-0.18319310,0.05732458,-0.31342828,-0.05271441,
0.01877067,-0.15962176,0.01792507,-0.08103520,-0.13653187,0.12138116,-0.14987573,0.42498153,0.28243214,0.11840797,0.31811708,0.14955214,
0.03130582,-0.00043185,-0.44597328,0.00379702,-0.28505927,0.20101382,-0.11971395,-0.03438919,-0.29755807,0.41747358,0.12203892,0.18849070,
0.03592527,0.13551687,-0.36688215,-0.26685169,0.07911516,-0.20240283,0.31076542,0.12649255,0.01161140,0.20712464,0.17669274,0.23062734,
-0.02656935,-0.06346199,-0.42763236,0.21402785,0.06350657,-0.04634744,0.19992517,0.16005857,-0.58328086,0.56555516,-0.27961779,0.04828524,
-0.03090758,-0.04557157,-0.12009983,0.32823646,0.19575861,-0.00357811,-1.19716930,0.30180153,-0.19524489,-0.28550097,-0.40551224,0.35005751,
-0.31059006,0.03785488,0.39855772,-0.37429857,0.33205250,0.19644991,0.00726224,-0.39491394,0.10956056,-0.26682729,0.01553134,0.23818429,
-0.16185744,0.45783648,0.29989529,-0.09574576,0.41931221,-0.11098265,0.00449644,-0.27896938,0.26625654,-0.65253133,0.05713565,0.22640650,
0.34079459,0.06854280,-0.44965965,0.54106128,1.15946889,-0.11300564,-0.44083765,-0.53122574,-0.83979547,0.38713577,0.15590033,0.05377061,
-0.06184187,0.06044294,0.13998429,0.04228740,0.58146459,0.36444533,-0.03908034,-0.13992025,0.20026273,-0.23367153,-0.03611617,-0.42443269,
-0.08629749,0.23616967,-0.30558982,-0.06416590,-0.10219713,-0.30334061,0.19931839,-0.10433456,-0.20524062,0.23533678,-0.28858331,0.04455436,
-0.07618693,0.00208769,0.25789744,-0.49478048,-0.23846231,0.21645012,-0.01937574,-0.07704875,-0.11089934,-0.24912445,0.29723012,0.22027314,
0.11100557,-0.13331117,0.25485304,-0.70517558,-0.21732125,-0.21106601,0.12372456,0.07245032,0.09947274,0.31420538,0.02025593,0.20372100,
0.27173400,-0.05791462,-0.36124170,0.51148695,-0.39618254,-0.16456446,-0.54202902,-0.54784417,-0.47714785,-0.22453174,0.20889172,-0.00736696,
-0.03545558,-0.00314251,0.03485240,0.19388348,-0.29467535,0.15838653,-0.08515824,0.26292220,0.08354012,0.40761605,-0.05603717,0.16288136,
-0.10714425,-0.11567710,-0.46406335,0.54254824,0.68822342,0.00172132,-0.85559005,0.08329163,-0.16734862,-0.11492931,-0.20934713,0.39859629,
-0.13737780,0.03799229,0.52117801,0.17777266,0.45805496,0.37772998,0.02245049,0.23200968,0.55416328,-0.01545760,-0.40538436,-0.27923566,
0.12250174,0.02871162,0.43598804,-0.19604850,-0.33024621,-0.04913589,-0.47216561,0.27294579,0.39547551,0.40549645,0.00637061,0.00442805,
-0.02929018,0.15629248,0.14044729,0.68384767,-1.03120315,-0.02045947,-0.22178409,-0.16306783,-0.40378338,-0.19836922,0.56158239,-0.30756554,
0.17028250,-0.03540246,-0.09092923,-0.00353893,0.87165147,-0.13560398,-0.55862325,-0.01686175,-0.00942123,-0.22878836,-0.41789231,0.29713762,
-0.19889887,-0.38843584,-0.15732761,0.13911502,0.32707852,-0.11745694,-0.35310254,0.28012174,0.17402017,-0.39109141,-0.16372833,-0.07376926,
0.01854786,-0.08472915,-0.06780440,-0.18353759,-0.61625606,-0.29123855,-0.53834230,0.40410003,-0.16211994,-0.39542988,-0.52467191,-0.01034875,
0.00219425,-0.04122550,0.21298556,0.33811072,0.31850275,0.39197707,-0.52862948,0.36119252,0.19674405,-0.37711096,0.03270900,-0.01292374,
-0.15457109,0.21681120,0.18791646,-0.02709564,0.20433398,-0.32527438,0.16759306,-0.08572149,0.41153267,-0.14858323,0.02708687,-0.02714308,
-0.08092307,0.06894884,-0.15544227,0.31042394,0.60164350,-0.28655612,0.21815394,0.24658297,-0.08813743,-0.00346083,0.15864599,-0.00130808,
-0.89181232,0.35967511,0.41257498,-0.29005566,-0.56768590,-0.04035393,0.28998318,-0.25423452,0.12487964,-0.02159374,-0.00136010,0.01710931,
0.19975491,0.08904298,0.07750133,-0.35987288,0.23301372,0.18398641,0.36726871,-0.31967285,0.12382592,-0.49185809,-0.09521172,-0.21589820,
-0.28884047,0.20341958,-0.37003651,0.91412836,0.31240919,-0.25053200,-0.54206681,0.16862525,-0.22170737,1.01056504,1.22511315,-0.29735175,
0.04644531,-0.17170045,0.35720569,-0.24047951,0.73267204,-0.18451773,0.33322749,-0.21616940,-0.12988332,0.17106217,0.01263556,-0.11476031,
-0.20727776,-0.09007373,-0.54605067,0.25429907,0.12443130,-0.03914357,-0.54450184,0.12225860,-0.41772822,0.10736730,-0.55617517,0.23155037,
0.24307521,0.17292471,0.13245086,0.04522021,-0.77293313,0.27936870,-0.63043684,-0.14027217,0.21762732,0.04723841,0.22110914,-0.21180573,
-0.10211565,-0.05962250,0.19865435,-0.00197414,-0.14289272,0.23862050,0.23471376,0.19887078,0.12378429,0.12985474,-0.39225829,-0.25649107,
-0.03528472,0.25557727,0.69009268,0.06323135,-1.55797982,-0.26133460,-0.33094302,-0.13766396,0.81026161,-0.03157024,-0.33441341,0.14972839,
-0.31322172,0.03372697,0.14834155,-0.01364270,-0.41411012,0.35214046,0.23306775,0.01041408,0.49164686,-0.11569051,0.04912203,0.14063492,
-0.31700522,0.24088736,0.06426407,-0.03252576,0.46515891,0.22263154,-0.41776502,0.12696096,0.13272718,-0.14225504,-0.25813827,0.18095608,
-0.06929970,0.06133633,0.18227383,-0.69648159,-0.23324497,0.35460225,0.20185558,-0.01791691,0.32580906,-0.26762614,0.11977264,-0.06887935,
-0.00494468,0.03787769,-0.00125769,0.29258993,-0.01027596,0.05610074,-1.08052838,0.00843083,-0.08563182,-0.55075401,0.09678124,0.00537055,
0.13111958,0.05768628,-0.74197376,0.46142983,0.86280721,-0.07521161,-0.00605624,0.23545560,-0.73615277,-0.06711818,-0.00602296,0.34846491,
0.26310688,0.18464613,-0.67612487,0.72659522,0.22283657,-0.00093427,-0.12167897,-0.45241791,-0.58193088,-0.06529209,-0.50536627,0.24569023,
-0.09692812,0.05614356,0.50720644,0.00794748,0.31362075,-0.33023790,-0.10065082,0.19649287,0.14379668,0.23258853,-0.31860673,-0.24575716,
-0.07942129,0.24356730,0.34417307,0.31336600,-0.00008141,-0.17676598,-0.16198213,-0.29092884,0.25735733,-0.39203808,0.29789326,0.16208705,
-0.29442555,0.01425204,0.50035912,-0.24853596,-0.16924722,0.23245241,0.42104182,0.05688472,0.26157498,-0.05177920,-0.36984944,-0.23177329,
0.05610615,-0.04072147,-0.61986923,0.99177551,0.54392672,-0.17716514,0.27544221,-0.23637499,-0.49227208,0.60692012,0.60000581,0.06447521,
0.03893087,0.07514130,0.06118083,-0.71058136,0.38380644,-0.11258259,0.32212648,0.48384258,0.18839093,0.32156500,-0.50885552,0.42657179,
-0.37649596,0.12468818,-0.25229910,-0.20922501,1.22094965,-0.32195467,0.18235613,0.01338694,-0.20890740,0.04504694,-0.53751588,0.03121996,
-0.09494700,0.13820653,-0.07410438,-0.12164028,-0.02677632,-0.19920476,0.03659174,-0.07574639,0.29840237,0.01171676,-0.23607905,0.02818307,
0.10815933,-0.04109754,-0.71142757,0.61381328,0.43764642,-0.08827873,-0.40328291,-0.00147451,-0.91434616,0.22922231,-1.00054073,0.27532125,
-0.91073531,0.24897286,0.43630776,-0.71833456,-0.06030762,0.00407393,0.30232504,-0.24588484,0.51026440,0.04696946,0.20186836,0.19491114,
-0.20296578,0.17108670,0.36864623,0.03052290,-0.08524922,0.21683539,-0.13102494,0.17591065,0.19002403,0.01829696,-0.41134381,-0.31358436,
-0.17180428,-0.01190854,0.07348694,-0.30939621,0.78983247,0.20947041,-0.09227746,0.02331699,0.34744620,0.36630595,0.02028640,0.03383168,
-0.29171959,0.00329789,-0.03377408,0.10709802,0.61169553,0.09942631,-0.07450267,0.34028924,-0.02362513,-0.18255584,0.28327075,0.45525199,
0.17998521,0.01016921,-0.40290686,0.20375519,-0.54977006,-0.02450935,-0.45047781,0.01781848,-0.44865891,-0.00746666,0.17269252,-0.34638506,
-0.29089448,-0.09239541,0.20358400,-0.42464244,0.43254843,0.33850965,-0.21604162,0.44378325,0.42843860,0.21069948,0.16944893,-0.13849458,
0.00951251,-0.10416248,-0.35764450,0.63596857,-0.07272477,0.31169024,-0.16909172,0.19456854,-0.06032948,0.04964293,-0.32068196,-0.23426782,
-0.19542137,0.24599747,0.58573234,-0.34145886,0.55192339,0.19736961,0.24812080,-0.14164583,0.41139138,-0.39004660,0.05890672,-0.00507003,
-0.16259800,0.01236667,0.56045079,-0.71502334,0.03534068,-0.01200192,0.08611172,0.11925013,0.56099516,-0.14859246,-0.21141678,-0.19618911,
-0.30338830,0.29973158,-0.23447672,0.43532059,-0.13483073,0.10536189,0.04998887,0.26588443,-0.04394533,0.20272510,-0.71287364,-0.41047877,
0.07940433,0.24312398,-0.64162111,0.71930283,-0.67467946,-0.31363764,0.00487342,-0.21831363,-0.69657284,0.20405313,0.13906671,-0.05480168,
-0.25879744,-0.29600430,-0.00453835,-0.08488303,0.19571114,0.02453896,0.16783701,-0.51631933,-0.11208176,-0.06309707,0.08598141,0.00277744,
-0.11043561,0.24076827,0.38829184,-0.51506990,0.36911583,0.37329829,-0.10853476,-0.29961494,0.44510087,0.12482039,-0.38931599,-0.13851109,
-0.06844225,0.13474616,0.06558210,-0.27341762,-0.30658436,-0.28435344,-0.17536096,-0.28107795,0.08329565,-0.10419302,-0.16793990,-0.05368873,
0.04505283,-0.20895885,-0.05380019,-0.00955358,1.00973630,-0.10780127,-0.65922832,0.12888128,-0.28130683,0.12583171,-0.52340823,0.01326114,
0.04587150,0.11193663,-1.24470103,1.14227629,0.96061772,-0.10208180,-0.02744701,-0.64062500,-1.58976543,0.63432914,-1.20063519,0.10442559,
0.11492748,0.03369642,0.03278505,0.19792226,0.19552359,0.00500640,0.56360281,-0.29681426,0.14042856,0.36030445,-0.22716582,-0.04884050,
-0.41028994,0.03803901,0.16301699,0.02859941,0.62603879,-0.21470386,-0.26923144,0.21317434,0.09591488,-0.11780687,0.04320145,0.23910758,
0.22318752,0.21185257,0.14592032,-0.26253057,-0.90681702,0.05110823,-0.32996827,0.17512310,-0.31768456,-0.08684823,-0.23102099,-0.16230871,
-0.03126822,-0.23779219,-0.40019473,0.10981017,0.60329592,-0.08679637,0.20458645,0.23405609,-0.14230332,0.15928818,-0.14886832,0.13424014,
0.14513326,-0.14813684,-0.10135664,-0.11756425,0.23327570,-0.06948580,0.06651890,-0.13331951,0.22038072,0.20294917,-0.12297089,0.09216591,
-0.14180301,0.10789719,0.04360722,0.01359967,-0.32725367,0.31027672,0.03604012,0.06595261,0.11842033,0.10716329,-0.23950291,0.15262796,
-0.17003089,-0.00844521,0.37651429,-0.20620516,-0.10064001,0.26604155,0.33307850,-0.00979014,0.02016598,-0.42893308,-0.38514596,-0.40067151,
0.12740768,0.27564925,0.44930428,-0.13271222,0.43982297,0.02501922,0.30939662,-0.41470167,0.36449119,-0.23810777,-0.18269260,-0.15264690,
0.11506902,0.18865874,-0.20409827,0.64348602,-0.37494740,-0.01420360,-0.92999369,0.13837864,-0.09877545,-0.66033161,-0.06804792,0.08976676,
-0.09449618,-0.09616250,0.09494635,0.02769252,-0.18876372,-0.05798395,0.10173453,0.35029659,0.21208633,0.77266455,-0.53713238,0.19183421,
0.02137360,-0.02676563,0.39818478,-0.37668931,0.51011616,-0.02612609,0.42319921,-0.04444414,0.01384199,-0.40743327,-0.22635870,-0.04810365,
-0.05010680,0.03808960,0.39771459,-0.39057824,0.00345913,0.28284642,-0.19279152,0.10479255,0.05648538,-0.44784287,0.05145240,0.23119754,
0.26887149,0.11260175,-0.96737504,0.79184055,0.32939178,0.00185053,0.34314951,-0.03260584,-0.90383077,0.49608290,-0.28158247,0.04684206,
-0.28619987,-0.07214759,0.08667156,0.08391208,0.11039784,0.13553357,0.00995234,0.12936664,0.00740765,0.25293157,-0.65614396,-0.28376174,
-0.12241013,-0.14584948,-0.01415642,-0.06123659,0.23041964,0.31905991,-0.21306138,0.51588595,-0.01762716,-0.33033469,0.05565432,0.03060112,
-0.23017798,0.09220797,0.18521425,-0.54017138,0.25247779,-0.32256824,0.04485826,-0.02143425,0.31871566,-0.25166294,0.02003642,-0.13642600,
-0.10211252,-0.34321824,0.20163162,-0.14538391,-0.48749810,0.07635013,0.09539030,0.21961582,0.07949164,0.29376569,0.10299414,0.16404530,
0.07630663,0.26954722,0.05544050,0.30089542,-0.60870421,0.03118476,-0.62846386,-0.13400689,-0.08625440,-0.24454755,0.53474426,-0.46042949,
-0.09605107,0.38817680,-0.26305211,-0.42719603,-0.16389170,0.19949953,0.07756839,-0.18567993,-0.24729103,-0.15274984,-0.35999855,0.19289657,
-0.22447069,0.09727314,-0.05808692,0.36359310,0.59997588,0.24332625,-0.39228725,0.12376706,-0.36665055,0.24981286,-0.54315597,-0.14767268,
0.08061928,-0.20653573,-0.25174353,0.59241754,-1.17538381,0.00019365,-0.69606090,-0.33518603,-0.17882152,-0.62649310,0.28312099,-0.18819861,
-0.22970091,-0.00566118,0.16240752,-0.09049459,-0.30973816,0.24120717,-0.54886115,0.30664286,0.17584236,-0.26254177,-0.07640293,-0.31923673,
0.16992353,-0.20566857,-0.18424164,-0.28547391,-0.00417001,-0.02117909,-0.00650458,0.09882041,-0.25597274,-0.10252463,0.40494046,-0.06197887,
-0.14344363,-0.07492331,0.07837108,0.00226098,0.52466905,0.12046375,-0.17036100,-0.20928751,0.29083553,-0.27413085,0.18545316,0.17636172,
-0.09601721,-0.15347187,0.62777561,-0.48108557,0.32700169,0.01051987,0.20557810,0.16965899,0.34522447,0.07492767,-0.18906870,-0.32554862,
-0.01396856,0.01773188,0.04660617,-0.22651172,0.26858357,-0.37152335,-0.12043203,0.17138441,0.57394797,0.09034819,0.04714452,-0.17177680,
0.09905787,-0.13102880,-0.08933664,0.11146627,-0.48703405,-0.03935745,-0.03363669,-0.02487245,-0.05099980,-0.14977048,-0.10388425,-0.05820909,
-0.24203540,-0.27631646,-0.12042616,-0.28188312,-0.37001321,0.04057215,0.29335248,-0.47519121,0.07533199,-0.37509632,-0.10031216,-0.06426537,
-0.12400289,0.11140465,0.14910477,-0.28963575,-0.44250658,0.21278274,-0.08219646,0.01250638,0.49647120,0.48729345,0.44410068,0.22280990,
-0.15644121,0.08235541,-0.36263660,0.17981011,0.06163053,0.40657336,-0.37478507,0.22867037,-0.22960645,0.03915532,0.09393064,0.30566794,
-0.03615353,0.05136322,0.17046046,-0.19855884,0.26736954,-0.19512075,0.45239863,-0.29841986,0.53215873,0.57449925,-0.27933311,-0.04872492,
0.03732859,-0.19596080,-0.42165479,0.42821008,0.66137528,0.08378841,-0.47804835,0.13196760,0.01142585,-0.24327929,0.08598863,0.32913607,
-0.19102280,-0.30511394,0.45805973,-0.19747317,0.21043821,-0.09195824,0.22654776,0.01608473,0.50647432,0.19730727,-0.42778689,0.22018792,
-0.15148401,0.17832996,-0.10678807,0.26417211,-0.32802454,0.17242803,0.18950307,-0.19923997,0.17171031,-0.05890260,0.22420838,0.17896476,
0.10854618,-0.02654290,-0.53484660,0.47744578,-0.02789170,-0.12097783,-0.18575735,0.08195890,-0.24662332,0.32621935,0.23712698,-0.45583427,
-0.26554385,0.16641617,0.18571454,-0.07725063,-0.21073766,-0.27264810,0.21896903,-0.03641638,0.40948942,0.09399794,-0.24737518,0.18037042,
-0.31835845,-0.04365184,-0.44602805,0.46468946,-0.97762018,0.34167159,0.02795484,0.15551285,-0.52498102,0.40934795,-1.15354681,0.23509134,
0.02314463,0.04553680,0.07769507,0.19855204,-0.74580497,0.19082944,0.07829645,0.07028839,-0.20064832,0.02400196,-0.62718463,-0.20533565,
-0.04992327,-0.21852009,-0.16172870,0.24571809,0.22746922,-0.07942117,0.05152293,-0.16580802,-0.53257978,0.17067964,0.93504333,0.08682339,
-0.15773202,-0.04768218,0.13396831,-0.50824440,-0.34906951,-0.32106417,0.14193657,0.03604956,0.44047028,-0.11739446,-0.08509999,0.01531544,
-0.22083929,-0.33126748,0.36611551,0.04133161,0.15882488,-0.36478049,-0.23601340,-0.11387071,0.36115924,0.14183299,-0.21115047,0.17758010,
-0.08297302,-0.05710682,0.15384345,0.11263993,-0.78455412,-0.01735929,-0.92326367,0.10079519,-0.06616907,-0.33155987,0.61708474,-0.43842924,
-0.09194627,0.22879177,0.39408660,-0.16489328,-0.38239208,0.07632300,0.24247155,-0.03932237,-0.11182579,0.23181611,0.12425906,0.29975495,
0.04128822,-0.17644762,-0.32237643,0.39949906,-0.43665814,-0.21525709,-0.45009041,0.49861455,0.13407616,-0.24995355,0.21485877,-0.02049374,
0.22824958,0.12297500,0.05348310,0.39113671,-0.67856503,0.18920429,0.20101762,-0.25105053,-0.38290420,-0.11143623,0.26674846,-0.30301377,
-0.03413549,-0.07227901,-0.43876833,0.47513554,0.38686550,0.03107977,-0.71361852,0.46544182,-0.27077800,0.08148563,-0.36788881,0.32065123,
-0.12384773,-0.05996292,0.34562418,0.03040668,0.44045010,-0.30157655,0.37763941,-0.16027527,0.15029885,-0.18676676,-0.32337552,0.23157910,
-0.11635212,0.13028537,-0.05257267,-0.45204058,1.00816774,-0.20102078,-0.02175475,0.07520250,0.06071346,0.21181080,0.05165648,-0.19243766,
-0.04470299,0.16365173,-0.40635273,0.05297763,-0.35013959,0.28137153,-0.47293580,0.24079961,-0.49143878,-0.06004778,-0.51088685,-0.20472842,
-0.45831868,0.13507798,0.20783333,0.23999855,-0.05239377,-0.06343144,0.16001062,0.09577206,-0.24227931,-0.04379433,-0.62746000,0.37811571,
0.00305698,-0.13779296,0.41974905,-0.65061480,-0.14674366,-0.20437184,-0.18370889,0.07131088,0.39061075,-0.09408199,-0.01820896,0.30267295,
-0.14424829,-0.07172827,0.23819430,0.18767235,-0.02342363,0.00142710,-0.18360627,0.25190240,-0.09683333,-0.16285114,0.28583679,-0.03116884,
-0.24997389,-0.20342846,0.01167621,-0.23749259,-0.11425410,0.09453652,-0.27479565,0.09014670,0.05183810,0.06004716,-0.23301989,0.01646709,
-0.02519271,0.22691722,-0.08515505,0.01065819,0.17761865,0.20392503,-0.06546738,-0.14659116,0.39956573,-0.48057154,0.00697846,0.05109761,
-0.03221631,-0.00185918,0.85149407,-0.88455218,-0.20716161,-0.26677313,-0.21901338,-0.12593378,0.86514574,-0.21777909,-0.22035086,0.28820133,
-0.24691561,-0.25923052,-0.18731894,-0.10664178,0.59724838,-0.05419207,0.03514124,0.27311462,0.08666048,0.41880059,0.01612187,-0.16268143,
-0.14098999,-0.07416796,-0.78584176,0.39712879,0.36134711,0.21387218,0.01752263,-0.09195877,-0.70768249,0.72673023,0.19667041,0.00520335,
-0.02092063,0.21635300,-0.56606704,1.06731129,-0.98387063,0.02843534,0.05621647,-0.20263928,-0.66798341,-0.04793339,0.81765199,-0.46068582,
-0.09417000,0.18635848,-0.35752299,0.20854773,-0.14305201,0.24544701,-0.06165067,-0.16379258,-0.03264434,-0.27055615,-0.07595174,0.33835095,
-0.15548377,0.15790787,-0.20044915,0.19453208,0.72625142,0.34321710,-0.25155950,0.27983829,0.06297275,0.27541509,0.06958590,0.16226266,
0.19882374,-0.05747782,-0.16721445,-0.26475906,0.30882797,-0.07311346,-0.77090961,0.56801939,-0.08647466,-0.31688273,-0.06263699,-0.21357028,
-0.25604564,-0.04208797,0.06344815,0.10880259,0.94997752,-0.11767611,0.22015779,0.15501642,0.22375306,0.31904143,-0.60317910,-0.21987885,
-0.04283868,0.02946625,-0.07031479,0.07357216,-0.01195068,0.08789368,0.53812540,-0.13348995,-0.05556953,0.25219262,0.25360605,-0.00887952,
0.00999423,-0.07055815,0.27505943,-0.22170281,0.52024180,-0.25163117,-0.03835092,0.28051823,0.32993349,-0.16210175,-0.22991867,-0.23308891,
-0.30585340,0.25517887,0.37000898,0.12334111,0.16943158,-0.23039402,0.29699811,-0.08985003,0.44856957,-0.18590870,-0.11982120,0.07993959,
-0.16262895,-0.04162361,0.12115320,0.00458405,0.73818272,-0.30510548,0.25992209,0.02846919,-0.04630346,0.27573258,0.19248194,-0.18094116,
-0.21171910,0.14104246,0.14568959,-0.29280409,0.62063193,-0.22521128,0.12057961,0.18258405,0.35612407,0.25490472,-0.25144884,0.11689632,
0.06813079,-0.27490363,0.00511193,-0.14957106,-0.11838334,-0.00018300,-0.26088876,0.35212681,0.21450138,0.33818457,-0.38385949,-0.21427998,
0.17701663,-0.06531797,-0.53292710,0.24638264,-0.73113751,-0.03796355,-0.70810592,0.17962329,-0.49240932,-0.08659251,0.27667856,-0.27461630,
0.14743650,0.13824943,0.17729460,-0.09533028,-0.53064173,0.27448618,-0.17972997,-0.17911077,-0.23033455,0.24058102,-0.03112915,0.18240595,
0.09797598,-0.21870087,0.12086532,0.23886000,-0.99444544,-0.11938561,-0.53498197,0.05227055,0.26704016,-0.36878535,0.28418377,-0.40501821,
-0.16220838,0.05804403,-0.25345626,-0.03380383,-0.74244702,0.02679741,-0.31916156,0.04440688,-0.02753069,0.27908239,-0.26773435,0.03033643,
0.08095470,-0.20083971,0.18888615,-0.10249861,-0.43733886,-0.08797172,-0.12976937,0.13258190,0.11354434,0.46247342,-0.03233296,0.38834903,
-0.16468300,0.30636442,0.36781347,-0.12002876,-0.16333321,-0.02575116,-0.56948221,0.00123479,0.28343114,-0.02879694,0.15469110,0.14553240,
-0.01922485,0.18561372,0.16300024,0.21257022,0.32646927,-0.20446280,-0.21293744,0.11669649,0.31162596,-0.09450217,-0.21195202,-0.13869537,
-0.12563652,0.29269221,0.15060489,-0.05665126,-0.76449281,-0.12726307,-0.06151560,0.13784280,-0.05597321,-0.57438850,0.04877442,-0.49002534,
0.17573063,-0.24322283,-0.26362976,0.24110006,0.69066024,-0.00999472,0.18489552,0.01215244,-0.24627562,0.49157566,0.46938312,0.14989512,
0.27549648,0.11290300,0.36207056,-0.42865077,-0.06395487,0.29587734,0.10132599,-0.25588346,0.24697991,-0.08985959,0.20233278,0.00290803,
0.04836118,0.05982246,0.11469758,-0.82666343,0.06325743,0.07490354,0.38926899,-0.08452491,0.22480431,-0.71023548,-0.34592673,0.16668424,
0.19257569,0.09504378,-0.82352942,0.75957650,-0.19230333,-0.00897465,-0.24529788,-0.65419066,-0.76076585,0.18620422,1.50426757,-0.18196943,
-0.01429885,0.12511265,-0.65137053,0.71010131,0.62156475,-0.16278324,-0.29185194,-0.19170450,-0.47839001,-0.37080553,-0.09322526,0.37549740,
0.10760754,-0.02218377,-0.88633543,0.52952570,-0.29046747,0.12201466,0.39470607,-0.08124948,-1.04452372,-0.21282138,0.33760220,-0.11278285,
0.18746012,-0.19960876,-0.26352850,0.78685063,-0.01546886,0.07154165,-0.75129718,0.03419133,-0.32100073,-0.50904125,1.15430450,-0.08694414,
-0.23939225,-0.02607266,0.02796062,-0.09411515,-0.15609927,-0.44155279,-0.23247701,0.35095626,0.44748476,-0.02504138,-0.37508366,0.12402395,
-0.14359215,-0.13896090,0.40856156,-0.26811031,-0.16313164,0.25101700,0.16271190,0.39779764,0.39849177,0.40106800,-0.21112378,-0.09066034,
-0.11117460,-0.14495623,-0.45079893,-0.25634930,-0.31476095,-0.00742877,0.38859817,-0.25420800,-0.27881637,-0.06020008,0.16599576,0.05104388,
0.08425312,-0.07462878,-0.30494699,-0.26944870,-0.31367049,0.00491369,-0.31747136,0.35462472,-0.16976047,0.19842263,-0.22257940,-0.23659661,
-0.09823561,0.06452153,0.15604647,-0.38305250,0.08188706,-0.05702132,0.71705961,-0.15688325,0.15592277,-0.05697171,0.24657974,0.08703363,
-0.34192258,0.06620754,0.17868730,-0.24066606,0.38492084,-0.50870287,0.09097394,0.18715939,-0.07927720,-0.11943370,0.06608648,-0.04258595,
0.00375231,-0.24298052,0.37101558,-0.69332063,0.33693320,-0.00380681,0.27982184,-0.15684387,0.34815702,0.02356518,-0.28509033,0.28676724,
0.10856619,0.01677987,0.12967512,-0.27097103,0.10485671,-0.18437536,0.32048482,-0.11776125,-0.32030654,-0.01473347,-0.36879912,0.16360164,
0.11285949,-0.04838429,0.02739884,-0.00630714,-0.28570911,-0.44810116,-0.06306796,0.01699573,-0.27903903,-0.06792580,0.25434512,0.26669106,
0.16200010,-0.15535173,0.69976938,-0.63405490,0.29611459,0.19040971,0.07660353,0.27810872,0.56888604,-0.08864425,-0.16766739,0.27504763,
0.09173033,-0.20286545,-0.16073945,0.41458362,0.44739816,-0.00516004,-0.50754279,-0.34944370,-0.55228597,-0.06177308,2.48198390,-0.12197863,
0.14922120,0.28848556,-0.03098815,0.34817725,-0.18789673,0.02523604,0.43065646,-0.07303391,-0.12425065,-0.10585014,-0.28734386,0.06025866,
0.02045859,0.21080859,0.15940526,-0.32023117,-0.15266635,0.30006382,-0.23757319,-0.04200080,0.16256730,-0.29101110,0.25960395,0.26333988,
-0.08229782,-0.15128233,0.15797816,0.06064371,0.14479266,-0.23724799,0.26966825,0.28088155,-0.02148741,0.19308464,-0.25308645,0.08426303,
-0.08842076,0.04768193,0.44132277,-0.37905639,0.11869916,0.22056314,-0.16129774,0.02054203,0.11588376,0.26627567,0.25000766,0.24219573,
-0.05435579,0.32503551,0.03751050,-0.32008106,0.00301029,0.09349070,0.07930493,-0.01259960,0.24582379,-0.22069409,-0.14191391,-0.09950003,
0.07172055,0.11066686,-0.05268471,0.45267901,0.36549073,0.13826311,-1.15643215,0.13240609,-0.47530550,0.20139444,-0.45198879,0.06010840,
0.05273862,-0.03795900,0.23342082,-0.16329607,0.33878335,-0.10587708,-0.14402205,0.16008316,-0.06658920,0.68004179,0.14179106,0.13850574,
-0.43397966,0.16734891,0.14501800,0.29121196,0.32215479,-0.13921133,-0.43125331,0.34783959,0.11575002,0.21854228,-0.49329177,0.05653270,
0.13898130,-0.03549744,-0.71868819,0.65159976,-0.04133174,0.03630783,0.33428723,-0.08785415,-0.45367220,0.59585124,0.16181622,-0.09310578,
0.12576696,0.29754135,-1.37587309,0.95685989,-0.10457662,0.28836337,0.40969130,-0.31928462,-1.72565281,-0.35803279,-1.01747382,0.22169822,
0.14332145,-0.22654693,-0.43959388,0.45995146,-0.56972289,-0.00292734,-0.64381194,-0.08639974,0.04683988,-0.33110088,-0.02804854,0.09318390,
-0.75074941,0.15038368,0.25200355,0.01238049,0.03841729,-0.07653164,0.24540791,0.06003578,0.26153672,-0.34860891,-0.07754213,-0.22968793,
-0.12934361,-0.17051063,0.62539691,-0.26116422,0.67549515,0.33720350,-0.07788070,0.20648372,0.36301225,0.01423080,-0.23193429,-0.10701470,
0.12684897,-0.09573676,-0.43744841,-0.14500624,0.17284457,-0.05615544,0.24931271,-0.16341817,0.00602755,-0.14229195,0.44575357,0.01250006,
-0.19953100,-0.32407582,0.12593725,-0.45037907,0.51512182,-0.24078740,-0.04374714,0.40665156,0.30417171,0.36381266,0.13691999,-0.23959607,
0.11592315,0.00461563,0.26182768,-0.72965616,0.30581188,-0.31513566,0.01224730,0.40004897,0.50885803,0.01331654,-0.10519063,0.19357084,
-0.71988142,0.42653242,-0.15853505,-0.12921989,0.21893714,-0.57094598,-0.03000890,-0.08409621,-0.10536242,0.48462987,-0.55148888,-0.03961717,
-0.00647635,-0.22563519,0.37835070,0.00042206,-0.53828663,-0.33816078,-0.45172653,0.17881939,0.40815610,-0.12760711,0.10795143,-0.11219427,
-0.27330929,-0.17622954,-0.20758079,0.23596291,-0.37254238,-0.04250886,-0.12768666,0.16578199,0.06916467,0.06920530,-0.54897624,0.44175482,
0.09658979,-0.16341904,-0.04575511,-0.02678250,0.01948913,-0.08032358,0.07358226,0.02641525,0.28072661,-0.01266995,-0.28673980,0.11725213,
-0.33711711,0.00455236,-0.36521712,0.47173846,-0.66540611,0.01753530,-0.37919933,-0.26155350,-0.18666278,0.13275473,-1.49002242,0.42636350,
-0.08372653,0.08667587,0.54570037,-0.60884953,0.03438559,0.41061652,0.05193480,-0.21895497,0.54101223,-0.26717657,-0.30109593,-0.06519474,
0.15614703,-0.06019304,0.29386866,-0.32957527,0.12053411,0.12450414,-0.13778813,-0.20419231,0.28140050,0.35437444,-0.21873072,-0.14477062,
-0.24833591,-0.07637931,0.26866096,-0.00015969,0.11136577,0.39520034,0.18741646,0.19263893,0.19919170,0.13784234,-0.33921164,0.08252112,
0.06142199,-0.00411980,0.49159834,-0.27379203,0.13065264,0.01860198,0.07689777,-0.24006519,0.29636455,0.31006214,-0.24984691,-0.13667427,
-0.48253444,-0.17228189,0.31763899,-0.25731650,0.26699182,0.01201172,0.45545843,0.39338529,-0.00870854,0.39643005,-0.18239479,-0.22078636,
0.15440434,-0.02678517,0.16384169,-0.42456159,0.11033985,-0.04969580,0.06863890,-0.26856327,0.29835123,0.41151434,0.07078809,0.07278348,
-0.03285431,-0.00487228,0.13243188,-0.37200311,0.26526409,-0.09782685,-0.38862708,-0.46384621,0.14160061,-0.15721633,0.32830459,-0.31738499,
0.01320215,-0.20721413,-0.08594363,0.03556642,0.31721145,0.16809377,-0.57479101,0.04945172,-0.07574756,-0.42721105,-0.03496403,0.26281151,
0.21102731,-0.23993182,-0.58954275,0.82319134,0.57178849,0.02378019,-0.56969243,-0.35970357,-0.52573967,-0.16335943,0.82720155,0.07902314,
0.20485094,0.18787646,-0.49748856,0.30547869,0.17225334,0.04821787,0.07038192,0.16811027,-0.66346163,0.21953374,0.07302528,-0.11511314,
-0.16017818,0.09430974,0.27544224,0.01389541,-0.65044975,0.17544958,-0.05228181,0.00918640,0.08687672,0.13347712,-0.29026380,0.13008402,
0.18989983,-0.11659929,-0.33376858,0.86909002,0.17315583,0.13123176,-0.36889043,0.02517711,-0.27426425,0.55887145,-0.44544902,0.37536475,
0.12178797,0.21373299,-0.15162253,0.16119212,0.59169000,-0.01336827,0.08585028,0.07426552,-0.14517267,-0.09749980,-0.17602085,0.01424616,
-0.01660131,-0.26173466,-0.28025153,0.09585723,-1.58631957,-0.04678798,0.14967379,-0.12395896,-0.14720014,-0.17914559,0.21559428,-0.45237294,
-0.00298370,-0.27856600,-0.15190181,0.57194340,-0.23066364,0.02292303,-0.62709188,-0.35908267,-0.57877326,0.10117027,-0.37035856,0.03258801,
-0.06337138,0.09117961,0.15364826,0.18549955,-0.00388317,0.43028563,-0.12678976,0.40548056,0.22470245,0.31646606,-0.18873231,0.03034629,
-0.02090592,0.04614180,-0.12393104,-0.27451864,0.02096224,-0.08366604,0.44228318,-0.63308769,0.17218617,-0.10359052,-0.23984115,0.17746311,
-0.16254735,0.25553286,-0.34675205,-0.54345649,-0.05968565,-0.07631143,0.05873277,-0.20874421,-0.47274461,-0.22980414,-0.47409564,0.19697532,
0.22894934,0.27507904,-0.14112791,0.05930888,-0.05581036,0.33220860,-0.59662759,0.49018711,-0.08421778,0.13598420,0.13914362,-0.03212880,
-0.09985018,0.04547202,0.21085334,-0.40501678,-0.54611921,0.01611886,0.12775894,-0.27818766,0.14466248,0.14557935,-0.06572832,-0.13439780,
0.12533244,-0.07742339,-0.01131671,-0.07456071,-0.35966682,-0.08395257,-0.03367025,0.31972432,0.38882649,-0.08908004,0.17739321,-0.10047600,
0.28896937,0.10311575,-1.63517451,1.09503901,-0.42414603,-0.17006274,0.40468991,-0.31721279,-1.61995995,0.77561444,0.26279506,-0.13574669,
-1.09575963,0.43952027,0.24549884,-0.09518383,-0.08280618,0.18708852,0.14153996,0.01147753,0.31891009,0.12526847,-0.24466118,-0.09824401,
-0.08378692,0.14678742,0.20139307,0.29648966,0.08464174,-0.02445579,-0.36331925,-0.16408846,-0.03501714,-0.18725932,-0.26090440,0.48410740,
-0.41237202,0.20778669,-0.33174205,-0.15739444,-0.36191800,-0.15060581,-0.07926966,-0.20302042,-0.31500837,-0.32814881,0.93602002,-0.25626674,
0.11430307,-0.16829520,0.72055459,-0.79088962,-0.24825320,-0.09818868,-0.23916453,0.08065851,0.65835881,0.14891349,0.12456436,0.06273258,
0.12770757,0.00187647,-0.16359131,0.54692078,-0.34733874,-0.07661428,-0.32693228,0.18266347,-0.30514088,0.12838030,0.24812946,-0.43622118,
-0.20773920,-0.00515976,0.01285812,0.21247062,0.19098850,0.17420697,-0.19020788,-0.19251058,-0.20936239,-0.20185634,-0.49666846,0.52509141,
0.06186111,0.26739436,-0.26726386,0.31012419,-0.00469607,0.17460160,0.24168672,0.00555374,-0.55242890,0.17935717,-0.85299379,0.29215258,
-0.19807832,0.14691913,-0.21476378,0.00962964,-0.11972795,-0.28026766,0.16631919,-0.03262132,0.07468700,-0.12108228,-0.11001773,-0.01539717,
-0.31822598,-0.03173808,-0.27493441,0.38531435,0.81164616,-0.40829113,0.23590370,-0.07195488,-0.08102563,-0.12519459,0.22789128,0.04797835,
0.06531154,0.23948959,-0.10292760,0.08116390,0.22000508,0.22923622,-0.18629301,0.14414605,0.00314935,-0.22045973,-0.20637043,-0.04117742,
-0.20692192,-0.06186694,0.27324185,-0.11111439,0.01497878,0.26040912,-0.13706224,0.10460959,0.18617743,0.23109563,0.17006747,0.24051972,
0.12458110,0.07874692,-1.20441687,0.85446036,0.96665579,-0.27539885,0.26530656,-0.53576857,-1.50266254,0.52430958,0.19538739,0.03701488,
-0.12288683,-0.21653943,0.14122958,-0.41174930,-0.09960005,0.21531548,0.03564419,0.40922326,0.13787167,0.19460869,0.10449267,0.15605947,
0.09425552,-0.05708843,-0.35235789,0.45766222,-0.44218913,-0.23920281,-0.28318614,-0.30416712,-0.24998692,0.28606677,-0.11851970,-0.18110624,
0.12603739,-0.09496600,-1.66565526,1.77435386,0.93203956,-0.03142477,-0.01114509,-0.62005466,-1.70999503,0.69694072,-0.11663470,0.07236905,
0.14274845,-0.13038550,-0.30322683,0.57513481,0.77930433,0.13228019,-0.38133052,-0.00905599,-0.13437985,-0.11683864,0.05421362,0.27130556,
0.32230535,0.18675917,-0.75328714,0.56382948,-0.57540816,0.15652962,-0.10472259,-0.05865627,-0.28223738,-0.09477346,0.17160466,-0.13831820,
0.12203342,-0.00522339,0.01766813,-0.02373986,0.46890393,-0.10117007,0.19023678,-0.22394772,0.10656149,-0.05643284,0.02894768,-0.07513859,
0.17116271,0.08589892,-0.44567695,-0.04347601,0.65471792,-0.23119754,0.09789202,0.19234896,-0.50878775,-0.06561636,0.00194908,-0.30424234,
-0.17948005,0.05090630,-0.26414433,-0.27288988,-0.99874657,0.32590133,0.29961711,-0.42432845,0.26111516,0.14369707,-0.35788223,0.23117979,
-0.39426112,0.35894316,-0.38268963,-0.16507658,0.33204710,0.25261143,0.17051023,0.40704495,-0.24326953,0.23810321,-0.18695919,0.21598397,
0.18921015,-0.17245755,-0.22365677,0.13704205,0.00722824,-0.00174181,0.12282676,-0.04544372,-0.17441127,0.07278240,-0.26646802,0.07138719,
-0.52542245,0.37831554,0.06179094,0.01894279,0.19415721,0.36265495,-0.18686387,0.00397283,-0.02358212,0.29882473,-0.43054676,0.05197046,
-0.09917893,-0.17379016,-0.32011411,-0.09552116,-1.27977836,0.07119351,-0.57886028,-0.33159909,0.00502774,-0.19553487,0.12833402,-0.09821754,
0.08239400,-0.26017430,-0.04627501,-0.30573204,0.14052601,0.03209773,-0.03154811,0.13203263,-0.26925567,-0.18366729,-0.34052637,0.12294344,
0.04755301,0.11737449,-0.23275101,0.19264467,-0.18116060,-0.16471530,-1.17801237,0.00322146,-0.36161295,-0.37873149,-0.16945669,-0.08002926,
-0.22134753,
0.46379456,
0.07607478,
0.54365259,
0.21357113,
-0.23324615,
-0.00161130,
-0.15920782,
-0.14313482,
-0.49893600,
0.47298735,
-0.03672507,
-0.23287776,
0.43241596,
0.09352159,
-0.25574818,
0.08458515,
0.02715197,
0.31597400,
0.00330772,
0.34344742,
-0.23677218,
-0.41921845,
-0.09067119,
0.40049648,
0.00640833,
0.55280888,
0.23643702,
-0.24238870,
0.13809520,
0.13174383,
0.44121718,
0.23658709,
0.34007972,
0.14584520,
0.44958147,
0.03603497,
-0.41595149,
-0.14513932,
0.12177741,
0.05703098,
0.23898289,
-0.54606301,
-0.38833970,
0.13234957,
0.24923505,
-0.01124041,
0.30659792,
-0.17754063,
-0.21946755,
0.08488556,
0.47310382,
0.23567070,
0.24317876,
-0.12408374,
0.44369271,
-0.40708128,
0.17409089,
0.05055629,
-0.24060814,
-0.13748533,
0.24878369,
0.41592658,
0.00358819,
0.33772704,
-0.10788832,
0.64998323,
-0.02146541,
-0.30140424,
0.08174563,
0.16646223,
0.11362661,
0.27806139,
-0.51161319,
-0.01714430,
0.07742042,
0.03760132,
0.33148316,
-0.14391315,
-0.07818778,
-0.02294027,
-0.04770854,
-0.06262658,
0.16922730,
0.12187573,
0.00268177,
0.28392678,
0.08327904,
-0.01079105,
-0.01015834,
0.10627341,
-0.27459836,
-0.80910426,
-0.28796533,
0.24376804,
-0.00422838,
-0.29147398,
0.35807297,
0.22672914,
0.32300621,
-0.11730298,
-0.25967020,
0.26942614,
-0.23350152,
0.08849151,
0.32724088,
0.03376520,
0.05365957,
-0.01944816,
0.24679150,
-0.01220848,
-0.11574508,
0.48075929,
-0.32355136,
0.04794278,
-0.00389265,
-0.21124883,
0.41686770,
0.24552703,
-0.16446045,
-0.14405005,
-0.29262030,
0.21167889,
0.05010451,
0.42184389,
0.25903130,
0.12821199,
0.07057706,
0.33156821,
-0.24893753,
0.33388767,
-0.36942622,
-0.17628187,
0.00939278,
0.16249384,
-0.09860022,
-0.18716174,
-0.46931222,
0.07278370,
-0.26696944,
-0.32580724,
-0.06584828,
0.48809114,
0.44827995,
-0.16670696,
-0.26460874,
0.24613966,
-0.16094799,
-0.21664542,
0.16872469,
-0.37296993,
-0.02534066,
0.30726016,
-0.50558698,
0.17517206,
-0.39420855,
0.12871937,
-0.09443616,
0.07402726,
0.16995002,
0.11828733,
0.30748266,
-0.18637468,
-0.19657426,
0.11523959,
0.36557484,
0.37509716,
-0.19677432,
-0.10323054,
-0.26099265,
-0.44845372,
-0.37997335,
-0.62401533,
0.14344311,
-0.33575970,
-0.20029362,
0.52045572,
-0.02613416,
-0.17569572,
-0.08938334,
-0.14072576,
0.12976633,
0.03553117,
0.10423709,
-0.44662231,
-0.05201187,
-0.79032969,
0.09207856,
0.21454674,
0.23632812,
-0.02140569,
0.12781052,
0.43735009,
0.04373280,
0.48034200,
-0.03407545,
-0.31121218,
0.26880270,
0.15043926,
0.27679271,
-0.04595854,
-0.04168501,
-0.31643516,
0.15150239,
0.27242318,
0.05502116,
0.30287725,
0.12508745,
-0.00001330,
-0.03855433,
-0.01428833,
0.32004932,
0.02404121,
-0.00832883,
0.13929869,
0.43972424,
-0.53684485,
0.24178021,
0.09275423,
0.26849526,
0.38402125,
-0.06840017,
-0.45034403,
-0.04894044,
-0.35443291,
-0.39848977,
-0.14685659,
-0.10948291,
-0.32707745,
-0.34003735,
0.51652867,
0.15647420,
-0.05225011,
0.33471757,
0.02072155,
0.12450387,
0.09337792,
0.29033270,
0.12231985,
0.20796195,
0.33684134,
-0.51575214,
0.21048008,
0.05430710,
-1.03304720,
0.46386969,
0.34498838,
0.13475046,
0.11413261,
-0.15794192,
-0.04125132,
0.08076145,
0.41826671,
-0.14050023,
0.29482433,
0.34801096,
0.02563666,0.23543376,-0.14039850,0.06662481,0.17588133,-0.21408832,0.10420308,-0.70167595,0.43736172,-0.14151546,0.03287122,0.03000096,-0.00425929,0.13312021,0.00181574,0.06535329,0.03585184,0.16499037,-0.01296608,0.19090238,0.06944432,-1.47470772,0.06347087,0.08449197,-0.48213556,0.01582548,-0.85761863,0.05014585,-0.06762736,0.08567560,0.04301957,0.05534583,-0.05944935,0.00621980,-0.07308597,-1.49629903,-0.10936358,0.36653280,-0.34333339,0.20811336,0.01623976,-0.09431905,0.08891960,-0.58343321,0.05226985,-0.37574247,0.09997464,-0.01633671,-0.67215055,-0.41473916,0.05202102,-0.59419841,-0.45765272,0.18264823,0.11164525,-0.58745563,-0.06661356,-0.50991130,-0.00289705,-0.29866633,-0.05778655,0.17215101,0.07342425,-0.37776771,-0.74238771,0.09602145,-2.59004045,0.07050211,-0.69952053,0.15811777,0.28690124,-0.46884781,-0.03702966,0.07851440,-0.20676726,0.16439244,0.03045826,-0.95141572,0.02341827,0.06565163,-0.54718763,0.39617777,0.07183067,0.17895493,0.08278356,0.28610080,-0.09921296,-0.07426481,0.13500227,0.30763078,-0.01397918,-0.40843919,-0.09402779,-0.13054338,-0.22324981,-0.04792095,0.09462622,-0.00192242,0.02904073,0.18987571,-0.14532453,-1.06628788,0.15847082,-0.11762172,-0.05483950,-0.15153943,0.19433197,-0.29539496,0.15679996,0.07457011,-0.73656702,-0.01221338,-0.12474430,0.01340209,-0.39867029,0.09590392,-0.15045750,0.06504116,0.18876299,-0.00587341,0.01385559,-0.03337165,-0.32512373,-0.00913126,0.03693309,0.08274543,0.03851340,0.09022260,0.30119017,-0.79682189,0.02492477,0.14957356,0.09821766,0.21540959,-1.30321407,-0.14056610,0.11238547,-0.38231793,-0.65868956,-0.18446349,0.14139101,0.13978863,-0.53536677,0.16736569,-0.01889212,-0.03235225,0.15540949,0.19849651,0.12887862,0.02003412,0.18170187,-0.11928917,-0.25265262,-0.36574334,0.14002481,-0.64886832,0.06717035,0.13245019,0.08890489,-0.14728272,0.11047487,0.23360054,-0.11272252,-0.57989705,0.13804246,0.10050756,-0.37165219,0.14161086,-0.84403372,-0.07331949,-0.06621052,-0.08252168,-0.64171791,0.08277696,-0.08323922,-0.09369697,0.02257393,0.17480558,-0.05495223,0.00935243,-0.47745305,-0.26493689,0.02728935,-0.08209218,0.04558656,0.04390633,-0.49863067,-0.19516449,0.07992724,0.10166980,-0.00030078,-0.01044495,-0.41280684,0.08146038,-0.84864634,-0.11359358,-0.31414706,-0.53603023,-0.12904690,0.20611535,-0.00010247,0.09698172,0.14201875,-0.53891540,0.17023802,0.00816906,-0.00053038,-0.82876533,0.09377740,-0.06980400,0.01647217,-0.01397531,-0.36873236,-0.06287526,0.18353732,-0.58025092,-0.54264134,-0.16576438,0.17961785,0.00177435,-0.12418561,-0.08952371,-1.31882083,-0.26649284,-0.08800718,-0.36429307,-0.20333961,-0.03216101,0.07573189,-0.43941784,-0.16678932,-0.72262925,0.06116555,0.12429206,0.03177132,-0.73231196,-0.19998981,0.05833106,-0.12970325,-0.05437971,0.00504813,-0.37214342,0.09490198,0.01840939,-0.59182572,0.00488640,-0.09610175,-0.02086902,0.06430033,-0.09451374,-0.28626513,-0.05658102,-0.97703123,-0.40821218,0.09984681,-1.96628988,
-0.07438762,0.02845028,-0.01511284,-0.18075810,-0.12491652,0.17495230,0.04865514,-0.27315292,0.05441950,-0.14700510,0.02963315,0.06157027,0.06876158,0.07098888,-0.33054292,-0.00570285,-0.03592704,-0.20613146,-0.09156259,-0.21213804,-0.01209618,-0.16386847,-0.13217604,0.04620863,-0.18908073,-0.00138492,0.01319433,0.00937203,0.01880583,-0.11512499,-0.16301046,-0.27588597,-0.01345525,-0.06484586,-0.04407839,-0.29103869,-0.21707985,0.07880698,0.20382661,-0.00570862,0.07316182,0.04905758,-0.14197581,0.28189626,0.08169099,-0.24136056,-0.05079155,-0.10309493,0.14407001,-0.17667386,0.29265252,0.06675977,-0.50098777,-0.00436487,-0.00993452,-0.33409634,-0.10227904,0.11972968,0.02955683,-0.01322445,0.28117558,-0.21324424,-0.06988626,-0.15091173,-0.63897336,-0.38272047,-0.10692589,0.35874519,-0.03739102,-0.00199169,-0.06075184,-0.20381109,0.01037742,-0.03303738,0.11286689,-0.03482663,-0.01708498,-0.05667675,0.01037441,-0.05363888,0.09484085,0.13918185,-0.10442873,-0.24707980,-0.27377021,0.05460940,-0.11388508,0.13458653,0.01942803,-0.04271577,-0.01941364,0.27759767,0.27009252,-0.02704180,0.22884096,0.06199060,-0.00769990,-0.05323901,-0.05397311,-0.16591567,-0.05123841,-0.01817279,0.05450261,-0.09864865,0.12423581,0.02031250,-0.29742301,-0.05847882,0.00073476,-0.13096182,0.07838799,0.09366337,0.06440324,0.22660293,-0.15999214,-0.00485591,-0.17660885,-0.10572813,0.06857517,-0.05569428,-0.02403956,-0.43366688,-0.16511664,-0.02185239,-0.09211943,-0.05284167,0.13560675,0.01748870,0.02319334,-0.19821267,-0.07045311,0.13122050,0.04584942,0.01825709,0.16916457,0.03169271,0.07470749,-0.00787124,-0.04521334,0.03457470,0.08951491,0.63045943,0.00267043,-0.05714539,0.05802707,0.01210438,-0.31248537,-0.36618406,0.19125095,-0.29872626,0.35026103,0.05854816,-0.00782504,-0.14335459,-0.02395373,-0.06137699,-0.03876837,-0.03052149,-0.01433690,0.05557960,-0.00908644,0.11964946,-0.13789451,0.37879258,-0.01248305,-0.17969334,-1.01778662,-0.02428853,-0.03215714,-0.15750189,-0.14118092,-0.18737288,0.06460594,0.05470528,0.10763717,0.17048976,0.10053582,0.25427061,-0.02972840,0.03119822,-0.12921333,0.14925294,-0.18858255,-0.03483953,-0.05469826,-0.33595514,-0.19783835,0.02590629,-0.02831150,0.03014739,-0.10763312,0.01005663,-0.79592764,-0.21780547,-0.28517127,0.06287564,0.14393288,-0.10621199,-0.05803791,0.09637390,-0.07123876,0.07914843,-0.13120972,-0.07997929,-0.00295524,0.13413374,-0.14001204,-0.19437540,-0.71331650,-0.17129065,-0.04645041,-0.08893593,-0.01916793,-0.16100691,0.05676701,-0.00870419,0.16925634,0.04148325,-0.01636675,-0.08529286,-0.01747305,0.06700805,-0.06462264,-0.11232389,0.10963645,0.12011829,-0.17698234,-0.12344248,0.08563220,0.13999732,-0.05952837,0.05211722,-0.18094417,-0.16688269,-0.00865790,0.01288548,-0.15169318,0.01200378,0.10445894,0.09442626,-0.05910075,0.30277115,0.22444001,0.13048179,-0.13040166,-0.16841699,-0.08054239,-0.02316778,-0.00776229,0.02627465,-0.08280383,-0.09244484,0.01241768,-0.13953011,-0.18539959,0.23890342,
-0.07938539,0.07922992,-0.00494957,-0.11396994,-0.02852616,-0.04721569,0.19311264,-0.90921187,0.16594763,-0.20340247,-0.02904062,0.09616518,-0.01689226,-0.06131889,-0.15881601,-0.07834040,0.25547385,0.08455452,0.03550438,-0.06319521,0.01283674,-0.26772180,-0.68875724,0.02868648,0.09541010,-0.00623622,-0.53957939,0.04328981,-0.07630162,0.07318854,-0.01349471,0.06078631,0.10943062,0.10548424,0.07372636,-1.37604761,-0.02068503,0.17611462,-0.03521093,0.05281845,0.00683968,-0.00390732,-0.06420407,-0.16507883,0.03644783,-0.03548456,0.03305763,0.07149307,0.01499601,-0.04473539,0.00773032,-0.48398694,-0.40305188,0.10861579,-0.00151572,-0.51220405,0.01861341,-0.38588241,0.02310518,-0.31082341,-0.04067485,-0.05452683,-0.00300368,-0.27309099,-0.57155651,-0.10414569,-1.71466398,0.07598047,-0.03032990,0.06166358,0.06304786,-0.32693720,0.07460266,0.00092341,0.06422617,0.01129591,0.05516075,-0.37696248,0.02581610,-0.05380546,-0.24043143,0.04234304,-0.18381940,0.09864424,0.11426387,0.22825809,-0.09777787,0.17657113,0.21290314,0.01905414,0.03513965,-0.37032932,0.01527727,0.06927736,-0.39269760,0.02190917,0.06108968,0.01924523,-0.02497218,0.11270326,-0.00184639,-1.26308382,0.26803011,-0.01388505,0.01658382,0.16666752,0.09331592,-0.21850482,0.10988734,0.05282726,-0.33394116,0.15193249,-0.57591683,-0.00061572,-0.30973479,-0.03047072,0.36737141,-0.00668253,0.04712044,0.00696453,0.06099277,0.17305154,-0.24314713,0.01261500,0.14592972,0.06433267,-0.00038662,0.08777354,0.16794579,0.13302110,0.06695658,0.06104125,0.09825311,0.01471770,-0.12568314,0.13113470,0.00451052,-0.01705323,-0.28448823,-0.02430662,0.02513211,0.31022722,-0.20428835,0.01872521,-0.01116151,-0.03692251,0.00222708,-0.06975695,0.11981911,0.14487402,0.08024834,0.18427420,-0.17405201,-0.19471660,0.07896801,-0.41943181,0.01319207,0.16268025,0.05096472,0.04220660,0.04474235,0.14740220,0.07017691,0.01684747,0.50579119,0.05246207,-0.58492404,0.04990681,-0.07607984,0.04666729,-0.03602066,0.00445558,0.08095092,0.17452708,0.03420864,-0.07323678,-0.25157532,0.07078021,0.07763728,-0.04252791,-0.15371969,-0.19171402,0.02284555,0.00160312,0.05741631,-0.07399444,-0.26050779,0.09794906,0.09597684,0.06880121,0.14550546,-0.00162365,-0.98294550,-0.06069979,-0.63074505,0.09363233,0.18517146,-0.13011417,-0.08305473,0.02938027,0.05876975,0.00948324,-0.08458813,-0.50704294,0.07423902,0.01212916,0.01308811,-0.67792803,-0.06174345,-0.02685651,0.06789593,-0.05184470,-0.28898278,-0.02983536,-0.02148938,-0.18366349,-0.07587130,-0.00876161,0.03009209,0.13126650,0.08362728,-0.01382702,-0.28274220,-0.25634721,0.04972812,-0.44145855,-0.32770613,0.06655581,0.01936981,0.07163665,-0.91364008,-0.07373078,-0.38052377,-0.05096668,0.02750871,0.37676495,0.06132196,0.14832482,0.02946874,-0.11072370,0.04149535,0.03102903,0.12370943,-0.03898891,0.01387790,0.23578952,0.10393402,-0.04206331,0.01450189,-0.04337712,-0.09504473,0.01894546,-0.72742796,-0.19325767,-0.03353796,-1.25127447,
0.00484880,0.05271519,-0.05335993,0.02550383,-0.01105707,0.05114304,-0.01450541,-0.05884553,0.05188841,0.01133209,-0.06828552,-0.02831175,0.02064224,-0.04914658,-0.01712372,0.00068761,-0.03500155,-0.00699052,0.01368675,-0.03172685,0.01198676,0.05084522,0.00208347,0.05176764,-0.03789296,0.00826413,0.01503217,-0.06078544,-0.05371524,0.01672896,0.04906427,-0.01442851,-0.00739508,-0.05540768,0.03666561,0.05228221,-0.03075607,-0.05817190,0.01572347,0.05008158,-0.02306098,-0.06655229,-0.03912552,0.03895212,0.00692860,0.04125615,0.02784980,-0.06551295,-0.04994851,-0.00218901,-0.00009172,0.01454084,0.03789109,0.00062618,-0.05951947,-0.05258933,-0.01205482,-0.03904852,-0.04383459,-0.02644315,-0.04229537,0.02756497,-0.05574065,0.04015169,-0.01744096,0.04221855,0.03674364,-0.02561731,0.04188847,0.02234197,-0.04416810,0.01806122,0.03187774,-0.00790071,-0.01924063,0.04902575,-0.05405733,-0.02974056,-0.03943794,-0.01805322,-0.01750098,-0.07139847,0.04037249,-0.02865403,-0.04942324,-0.02969230,-0.01453032,-0.05851242,0.01020709,-0.03849215,-0.02902328,0.04653654,0.03291949,-0.06050323,-0.00056174,0.02913594,-0.02414405,-0.05443649,0.01624683,0.04724207,-0.00665487,-0.02142288,0.04686343,0.03778065,-0.02242005,-0.00538130,-0.01958600,-0.04667966,0.02352203,-0.04719676,0.01828179,0.00811491,-0.04022704,0.01809284,-0.02521368,-0.04013516,-0.06138798,-0.02689081,0.00675222,-0.04389858,-0.03451903,-0.04774463,0.02035501,-0.00029455,0.04446134,0.02973514,-0.04674428,0.00113739,0.05629579,-0.02414420,0.02309655,0.02421029,0.03808174,0.05869607,0.04280181,0.00263627,-0.00637886,0.03331554,-0.05160280,-0.03316474,0.00719167,-0.00855006,0.04095278,-0.01165906,-0.05488357,-0.05424648,-0.02804720,-0.01556713,0.01646052,-0.00653765,0.05094086,-0.02927718,-0.02803510,-0.03903944,-0.06965451,0.05723777,-0.06574920,-0.05393494,0.02809546,-0.01259766,-0.06449672,0.04016828,-0.00038445,0.01101984,0.05100451,0.00696389,-0.05529774,-0.00822466,-0.03044605,0.01070947,-0.03685389,0.00193554,0.05564369,-0.00372318,0.04701012,0.00164871,0.04151870,-0.01417358,-0.06307956,0.00367262,0.01540002,0.04171880,-0.06806476,-0.03438000,-0.01054125,-0.04133752,-0.04687367,-0.05360953,-0.02137362,-0.03980795,-0.02356558,-0.05671277,-0.05439412,-0.03583118,-0.01452233,-0.05916150,-0.00914388,0.04821218,0.04763542,0.04984608,0.04773913,-0.06561574,0.02343726,0.02775607,0.05071885,0.01416613,-0.06659824,-0.05177507,-0.04706986,-0.04738035,0.02393680,0.00277389,0.01711755,-0.05197532,0.01286681,-0.01837461,0.05272553,-0.07147836,-0.02507439,0.05363131,0.04776090,0.02703567,0.02965840,-0.05918936,-0.05772014,-0.02297498,0.04408308,0.01140662,0.04307865,-0.05664005,0.00005308,-0.00786396,-0.01662937,0.04752934,0.03854378,-0.04233991,-0.00213813,0.05595953,0.04659145,-0.01285323,-0.03888449,0.03933390,-0.06513657,-0.04489814,-0.05641767,0.00162631,0.04122876,-0.05541208,0.00478345,-0.06771576,-0.00728480,-0.04340737,-0.00749697,0.05274927,0.02580245,0.01632373,
-0.01817124,0.03850626,0.18537116,-0.05102750,0.08677869,-0.21910733,0.15030861,-0.42082357,0.68594396,-0.20169717,0.15067273,0.09512487,-0.09486321,-0.02758131,0.05872997,0.10860340,0.21829228,0.06256652,-0.02615111,-0.15054354,-0.00365653,-0.41158527,-0.53705424,-0.29198068,0.11636097,0.03659033,-0.33653727,-0.02209533,-0.00759912,0.06951424,-0.08614840,0.10164529,0.13532594,-0.03513490,0.03282411,-2.27099323,-0.09545519,0.02177980,-0.21517828,0.16158374,-0.05969767,0.08119913,-0.10277299,-0.21303019,0.05125698,-1.32633078,0.06267774,-0.07934542,0.14723068,-0.91894132,0.02617199,-0.52095842,-0.34003797,0.05099492,-0.14942737,-0.36627930,0.03447518,-0.10635866,0.00986108,-0.91041082,-0.01151710,0.11200015,0.02118002,-0.32456449,-0.44729561,0.06574137,-1.78807652,-0.02263245,-0.32113460,0.02782411,0.55837071,-0.29362482,0.04759711,-0.17455019,-0.35644498,-0.03566592,0.13503864,-0.31654248,0.14456126,0.03123588,-0.31292924,0.14713149,-0.09765338,0.11635273,0.25484714,0.26669130,-0.11003569,0.17808756,0.19363263,0.09863653,-0.00412837,-0.33268821,0.22099136,0.07785050,-0.28917471,-0.03052665,-0.06769025,0.04799807,0.05559552,0.15135269,0.07696554,-1.49277222,0.20690148,0.05004414,0.02222279,0.06759497,0.06281497,-0.07618560,0.13877635,0.07679544,-0.30879673,-0.02168597,-0.52819520,0.00839015,-0.39986223,0.08842634,0.23951520,0.05879564,-0.02716135,0.01017314,-0.03230244,0.18348189,-0.28449595,0.02687349,0.14410600,-0.08078284,-0.03652817,0.09626850,0.12546083,-0.56002772,0.04726065,0.05681586,0.12340686,-0.07367413,-0.14367267,0.00436639,-0.03340095,-0.08885127,-0.93919355,-0.43719071,0.05213570,0.06694936,-0.83908439,-0.04199826,-0.04212248,0.04091458,0.03854784,-0.57554907,0.08025893,0.11794097,0.11897826,0.03764755,-0.08958684,0.14746711,-0.14260642,-0.43447682,-0.06043760,0.21066880,0.01584224,-0.52922565,0.02383786,0.18115668,0.01173699,0.06489943,0.24104653,0.13488665,-0.62303835,-0.00299848,0.00771747,0.03499626,-0.01458587,-0.06513123,-0.10338111,-0.26793140,0.00731635,-0.11664870,-0.78435117,0.19973348,0.08940189,0.00407301,-0.15949920,-0.56021076,0.01838367,0.02620753,-0.21052328,0.02603531,-0.62862182,0.07424441,0.20287013,-0.01861020,0.19785590,0.16787273,-1.61440289,-0.10936974,-0.14790793,0.09747870,0.02522600,-0.13578114,-0.13243733,0.16772611,-0.03210272,-0.05671643,-0.31336465,-0.24539353,0.04468073,-0.42768085,0.03739121,-0.92807257,0.01525523,0.09292496,0.18940161,0.06743625,-0.44363472,0.05063559,0.08074614,-0.64569443,-0.44802552,0.09478451,0.01904927,0.14017400,0.07404093,-0.01881479,-0.41029170,-0.20310383,0.03695333,-0.12185647,-0.07781149,0.08766566,-0.08466734,-0.07240240,-0.88061666,-0.88257718,-0.37963611,0.02888775,0.11218340,-0.46765852,0.00707806,0.12487799,-0.58813369,0.13614538,0.04642543,-0.26961353,0.10191438,0.10460868,-0.28896695,0.24790049,0.23949520,0.03972853,-0.03356886,-0.07364075,-0.10945588,0.05595930,-0.48355398,-0.23359220,-0.02013562,-0.78680539,
0.04597903,0.03958183,-0.02293352,0.01433547,-0.02217370,0.01041409,0.04643734,0.04348404,0.00367255,0.04196390,-0.02030638,0.02899739,-0.01344723,-0.06788056,-0.06716831,-0.03972385,0.03214276,-0.06704960,-0.00238214,0.01075890,0.03416145,0.02071501,-0.02108024,-0.06778961,-0.02076299,-0.02930366,0.03868191,-0.01345996,-0.02369043,-0.05814022,-0.02041070,-0.04120761,-0.00774501,0.00464071,-0.00676710,-0.05381470,-0.03300227,-0.07370342,0.03604229,-0.05937098,0.01271971,-0.05572789,-0.06037717,-0.03759028,0.04330851,0.00092348,0.00678564,0.05658578,-0.00389438,0.03221817,-0.00601169,-0.05634551,0.01777349,-0.07031409,0.00674616,0.02967892,-0.01977093,0.03992001,0.00937481,-0.03210001,0.02331463,0.02065981,-0.04308303,0.03261803,-0.01702655,-0.01568436,-0.00439790,-0.01683731,-0.06741842,-0.04034452,-0.05772740,-0.05399153,-0.05440493,-0.00151981,-0.06614778,0.01100921,0.01859835,-0.04249261,0.02985055,-0.05522795,0.04586357,-0.01571531,-0.00818977,-0.02488810,0.05256937,0.00419604,-0.03044360,-0.03875123,0.00193937,-0.03443750,-0.07152398,0.01266150,0.04868421,0.01186853,0.02807420,-0.00197766,0.02952804,0.00947503,-0.05540076,0.02731142,-0.03700240,-0.06796158,-0.05231161,-0.06478975,0.05034238,-0.00986071,-0.05744867,-0.03423670,-0.03168868,-0.04375762,-0.01369562,-0.02461338,0.00173842,-0.02638533,0.04197353,-0.04276222,0.04381924,0.04330748,0.03751573,0.03832820,0.04850358,-0.05889305,-0.02435842,-0.06826013,0.02502668,-0.00683943,-0.00463757,0.02979394,0.01485993,0.03809057,-0.02596588,0.00126240,-0.04741638,-0.04862089,0.04370947,-0.00213888,0.03456707,-0.02540153,-0.01448549,-0.00997661,-0.00468586,0.03200022,0.03950364,0.02500930,-0.01212209,0.01007251,-0.06526881,-0.05412642,0.04458167,-0.00336707,-0.04440740,0.03013336,0.03179009,0.01273111,-0.01709830,0.00298527,0.03120917,0.04219160,0.02995227,-0.01522146,-0.03676295,0.04073629,-0.04186258,-0.00058627,-0.03400892,0.00317923,-0.03750727,0.03668988,-0.00847101,-0.06583966,0.03466600,-0.06501664,-0.06941511,-0.00534666,-0.08137047,-0.04286619,-0.06419498,-0.01214642,0.04156902,-0.05061287,0.03516247,0.01710047,0.00194523,-0.03169684,0.04020131,0.05088549,-0.00396969,-0.05477228,-0.02466958,0.01521084,-0.01681210,-0.04522067,0.06177480,0.01241322,-0.01769254,0.04638309,-0.01445720,-0.07213248,0.01591220,-0.00182818,0.01825308,-0.05105413,0.01906042,-0.01965541,-0.01293388,0.01274188,0.02577113,0.00002988,0.05069764,0.04387358,0.02987680,-0.03452177,0.03872394,-0.06189847,-0.01990343,-0.01640829,-0.06026445,-0.00972501,-0.01924995,-0.03109546,0.00086633,0.04430820,-0.02435841,0.05947875,-0.00168467,0.03028572,0.04763903,0.02205892,-0.06878360,-0.00583869,-0.03232021,-0.00893881,0.06077389,-0.05197367,-0.02751596,-0.03133833,0.01239294,-0.07754669,0.05685132,0.03605473,-0.01587553,-0.03989872,-0.03273242,-0.01326114,0.02286223,-0.02589980,0.05037154,-0.00513557,-0.00306025,-0.00080522,-0.03047740,-0.00115111,-0.05297890,0.00243510,0.00273466,0.01587125,
-0.15752815,0.15693492,0.38561195,0.12163467,0.06395100,0.09595036,0.09196404,-0.35809547,0.01079727,-0.12258874,0.14170390,0.16536787,-0.06009525,0.16416293,0.01442534,0.07182903,0.22409157,0.03622700,0.09024177,0.16104425,0.09698153,-1.70476818,-0.01227687,-0.02780716,0.12126248,0.05572433,-0.18847120,0.02644449,-0.03016361,0.04665584,0.01712755,0.09699996,0.09828006,0.11320236,0.00328149,-1.22231638,0.10680220,0.04523423,-0.12342475,0.18119772,0.05123594,0.06675799,-0.07472154,-0.20269278,0.07865324,-0.33476904,0.06320120,-0.00328196,-0.65081060,-0.21088608,0.07131542,-0.43102491,-0.70233953,0.05811559,0.09731057,-0.60507149,-0.06997498,-0.72241825,0.09327408,-0.46023768,-0.32194880,0.13407651,0.01227353,-0.36079523,-0.77214766,0.01299715,-3.55571508,0.13660112,-0.23842588,0.11089408,0.20576204,-0.43779275,0.14334011,0.00551435,-0.18932724,0.07593494,-0.03405813,-0.46169767,0.32704017,-0.07767746,-0.19036908,0.31155014,-0.23399468,0.14880401,0.14059183,0.14937311,-0.02343031,0.18522201,0.14247659,-0.02132153,-0.05634038,-0.71225500,-0.32950667,0.05624885,0.03964211,0.04433893,0.04337601,0.10883184,0.05914032,0.13975132,-0.06823240,-2.09027290,0.06296974,-0.02239922,0.06257533,0.07986768,-0.01273823,-0.22801784,0.05855671,0.02573418,-0.85843575,0.10879303,0.27145508,-0.49486575,-0.70425129,0.12555298,0.27456278,0.06200673,0.04907132,0.03255505,0.09008699,-0.10272911,-0.26358324,-0.00314504,0.24547943,0.10206015,0.02326382,0.20162457,0.26284897,-0.22166847,0.05980172,0.00684724,-0.00986916,0.22350955,-1.65318584,0.06854897,0.10362842,-0.25344628,-1.07364631,-0.18087921,0.05686216,0.39383429,-0.31740272,0.18749449,0.01779583,-0.02776305,0.09007613,0.04241489,0.00039521,-0.00804054,-0.18157317,0.17860647,-0.13044487,-0.49398419,0.25423688,-0.46460408,0.13279779,0.12586005,0.15169197,-0.13038741,0.15041105,0.23628640,0.03886031,-1.01833117,0.15773620,0.16656771,-0.07602388,-0.00090843,-0.59841174,0.08667746,-0.10084903,0.00229427,-0.06781839,0.04326453,0.02015493,-0.39436913,-0.20539874,-0.05302562,0.06875101,-0.00325454,-0.41899136,-0.04510308,-0.01341624,0.11025969,0.04731319,0.02363600,-0.51752907,0.07343131,0.28728646,0.18736111,0.31364110,0.01553536,-1.25740302,0.03380736,-0.61330634,-0.00023556,-0.01158088,-0.60821426,0.00552645,0.09396593,0.04615169,0.13982931,0.01240697,-0.24395005,0.02511081,0.10820390,0.09709984,-0.36938602,0.03744259,-0.03104611,0.05419317,0.01790359,-0.23922652,0.01157509,0.14090459,-0.33057785,-0.21196193,0.00936403,0.05039526,0.13614182,0.02174000,-0.06523480,-0.31573886,-0.22157605,-0.00460884,-0.33195296,-0.07607473,0.02773452,-0.02743148,-0.09960192,0.14140683,-0.06982922,0.27329794,0.03607539,0.04289763,-0.26855507,-0.03540424,0.21382998,0.02737723,-0.09076867,0.16502117,-0.17885096,0.09471060,0.19553037,-0.00394237,0.16794607,0.05963399,0.06391161,0.14908843,-0.00797829,-0.14680198,0.03787672,-0.69661075,-0.43842450,0.10184112,-1.50741923,
-0.04867559,-0.01857421,-0.02466856,-0.02412932,0.03251451,-0.05306997,-0.03431618,-0.01372814,0.03277300,-0.06110144,-0.01806380,0.03602125,0.01785444,0.03841355,0.02087931,-0.04709277,0.03109092,-0.04828986,-0.02465150,-0.05828446,-0.06585862,0.00319903,-0.02132113,0.03306365,-0.03287984,-0.01032886,0.04440188,-0.05826657,-0.00659578,-0.02560871,0.03119428,-0.01885432,0.04661060,0.01313192,-0.04849340,-0.03863204,-0.02121793,0.03876440,-0.03848456,0.01574709,0.05077424,0.00688395,-0.02716253,0.02982185,0.04654931,0.04804800,-0.03380678,-0.04346284,0.02306144,-0.05277941,0.01112745,0.04820575,-0.01870411,0.02027356,0.00357223,0.05323970,0.00948014,-0.00826035,-0.04308826,0.03030839,-0.05723393,0.02572541,0.02784419,0.02377792,-0.03881425,-0.02535006,0.03906781,0.00034148,-0.04036315,-0.01526724,-0.05302388,0.03609024,0.00442392,-0.00040315,-0.03586195,-0.06013503,-0.05893584,-0.03278655,0.01100827,-0.02968625,-0.05074450,-0.05901637,-0.04591650,0.03286821,0.02543518,-0.04302775,-0.06244371,0.04229000,-0.03769965,-0.00967259,-0.01857824,-0.01401569,-0.05085861,-0.00164492,-0.01003962,0.03592582,-0.04231766,-0.06572934,-0.02258439,0.00438716,0.00387768,0.02606226,-0.06213869,-0.06643870,0.02202024,-0.06857940,-0.02302574,0.02975900,0.04988956,-0.00981355,-0.03100671,0.03174754,0.04089411,-0.00822335,-0.06162971,0.01115856,-0.01022810,0.04441879,-0.02795242,-0.04832366,-0.06134724,0.00539390,0.05164403,0.05754329,-0.04587960,0.04423070,-0.03266061,-0.01639290,0.04982504,0.01224912,0.05193599,0.01652312,-0.01573529,-0.06200825,-0.06493971,-0.05788843,0.03775668,-0.00017450,0.01188851,0.06246842,-0.00221792,0.03144861,-0.02025324,0.03529923,-0.05579755,-0.00207112,0.00871302,0.00113751,0.05044473,0.03000933,-0.04395923,-0.00941832,-0.02577648,0.04318779,0.00595759,-0.02398236,-0.03877191,0.00726531,-0.02970349,-0.01939473,-0.01223135,0.05629309,0.00259900,0.02212880,-0.02268065,-0.04308069,0.01714496,-0.00775806,-0.03435277,-0.03977448,-0.04128189,-0.03497156,-0.06008966,0.05168764,-0.01251286,-0.04354044,0.00086726,0.00976524,-0.03491315,0.00981807,-0.01876535,-0.02466731,-0.04536507,0.03972526,0.01889091,-0.03458033,0.02261442,-0.04494563,0.03708025,-0.04198821,-0.02378106,0.04289732,-0.05901231,-0.06992492,0.02734464,-0.02355614,-0.05004564,-0.03640640,-0.01121992,-0.04879171,0.02122683,-0.02502073,0.03764426,-0.01306286,0.06246435,-0.05544195,0.04198084,0.05502378,0.03646267,0.01941548,0.01537680,0.05170465,-0.03920273,-0.05615700,-0.05734961,-0.05942003,0.04415311,-0.00055418,0.00891283,-0.04600113,-0.00223800,0.03804812,0.00601488,0.02709015,-0.04609406,0.02841426,0.00033671,-0.00257763,-0.00431100,-0.00514822,-0.00527269,0.04414437,0.03733287,-0.01690311,-0.02776023,-0.05721228,0.04501087,-0.04579656,-0.06216699,-0.04083547,-0.04523879,0.05298628,0.00354940,-0.06186733,0.03325115,-0.02030013,0.05648072,-0.05425010,-0.02835580,0.04899592,-0.03988900,-0.05765220,-0.01591245,-0.06214579,0.00907533,0.05267237,
0.09503391,0.25392422,0.23932724,0.20645778,-0.00111682,0.22274469,-0.13973245,-0.40927351,0.66050512,-0.56489903,0.09448653,0.10396279,0.17126724,-0.08280361,0.03620837,-0.05220925,0.06167129,-0.06603129,-0.10656577,0.04378147,0.01512588,-0.74467242,0.16169117,-0.06804828,0.05257465,0.10892304,-0.93127048,0.08164645,-0.06781446,0.02145876,0.02538954,0.01247770,0.08296661,0.00951949,-0.08630140,-1.48445761,0.10618928,0.46428335,-0.39615110,0.20775351,0.03731263,0.08872571,0.02121993,-0.35349968,-0.05693086,-0.74336076,0.05736719,-0.05124819,-0.34003457,-0.30084729,-0.01832181,-0.54171038,-0.24010353,0.02777331,0.01775210,-0.29626796,0.03503003,-0.28940430,0.08756518,-0.71029371,-0.01811031,0.07573172,0.06525569,-0.14105651,-0.46776733,0.16407612,-3.20336866,-0.02160282,-0.11149593,-0.04867939,0.57781571,-0.33692339,0.13780853,-0.15637788,-0.54824287,0.00516573,-0.00879166,-0.25455183,0.40237021,-0.09339812,-0.26445642,0.28980669,-0.01211376,0.04353305,0.23741192,0.01430765,-0.35173059,0.23489536,0.27272141,0.23535053,0.15357812,-0.93614393,-0.70301175,-0.03049130,-0.15789789,0.04501350,0.03534539,0.14462478,0.04716426,0.18921562,0.13688745,-0.80573529,-0.03630781,-0.01942089,0.05918766,-0.19366151,0.00107774,-0.16275795,0.05861559,0.04981289,-0.55006158,0.05980307,-0.04079168,0.02508992,-0.55082375,0.07997810,0.24392959,0.01208517,0.03658460,0.12882477,0.18181151,0.11987317,-0.19919418,0.00798425,0.13065241,-0.02229230,0.11798862,0.15186505,0.18222177,-0.33837137,0.01186910,0.10762541,-0.03814328,0.09378943,-1.51067924,0.00677851,0.05408856,-0.10943766,-0.47250664,0.04501360,-0.02029610,-0.01794345,-0.00306848,0.16536199,-0.01058798,0.04217199,0.09438122,0.06268818,-0.27826393,-0.11803025,-0.10592112,0.07510139,-0.13322227,-0.15220712,-0.19867438,-0.46374854,0.07375714,-0.00712645,0.10689075,-0.18670572,0.05827283,0.35825768,0.03259736,-0.59143573,0.36578444,0.19758661,0.13813904,-0.07577837,-0.37912104,0.07796390,0.01760535,-0.04882391,-0.89877796,0.21172348,0.02776206,-0.24182348,-0.31327432,0.08903557,0.03377677,0.04145531,-0.27983189,-0.39541698,0.14273651,0.00364841,0.05997508,0.12023345,-1.24986482,0.00726046,0.21240343,-0.04027751,0.18050599,0.01177453,-1.30645096,0.13262846,-0.60274881,-0.02352779,-0.26567110,-0.62921149,-0.50549263,0.19467704,0.14562663,0.02062161,-0.07352053,-0.26187724,0.16880019,0.00494474,0.09217729,-0.48947686,0.07375327,0.13120940,0.08481842,0.07780707,-0.45235538,0.10437766,0.34295467,-0.41968611,-0.77507395,-0.06006389,0.01455634,0.06837629,-0.10272849,0.12040682,-1.01487660,-0.13064374,0.04860467,0.25862840,-0.19983946,0.09675557,0.10386872,-0.11229475,-0.51097852,-0.21992265,-0.08631288,0.22575642,0.04324776,-0.10632906,-0.13295226,0.03344060,-0.08499594,-0.02568547,0.15622722,-0.28094256,0.07947303,0.25381091,-0.76073587,0.18255462,0.00017778,0.12595017,0.02132060,0.05448776,-0.17005864,0.08075827,-0.30532327,-0.59293258,0.11790217,-1.75346255,
-0.07681746,0.10465328,0.15084232,-0.15219265,0.04141667,-0.27658406,0.24189532,-0.34917167,0.32554623,-0.24045131,0.01053553,0.20058276,0.07576728,0.05841926,0.01223409,0.08169933,0.13109434,0.23898271,0.04619499,-0.12122080,-0.01746500,-0.70867640,-0.49397463,0.05385803,0.19367604,0.01596629,-0.67932254,0.08341377,-0.10352577,0.16374670,0.08443075,0.04493756,0.04543472,0.03211785,0.09466422,-2.92178941,0.05287642,0.20984223,-0.07228509,0.09016231,0.11177677,0.08005146,-0.00736954,-0.13533944,0.10710111,-1.20654583,0.23915513,0.07125746,0.05564207,-0.44816074,0.03594681,-0.58105493,-0.35893765,0.14768565,0.05792005,-0.58945090,-0.04863894,-0.56994241,0.02147918,-0.56826609,-0.13992549,0.16410306,0.11966301,-0.31919324,-0.41595045,0.13047194,-2.17946410,0.04581641,-0.09110076,0.10244834,0.26160797,-0.34799221,0.19691792,0.00965152,-0.23329036,0.10376268,0.09654298,-0.26449174,0.12113266,-0.00729653,-0.37698638,0.10026003,0.06291775,0.08351485,0.24445158,0.40490645,-0.09073274,0.20419510,0.11674999,0.15366659,0.02631162,-0.74238503,0.00904724,0.01477354,-0.50434095,-0.05358523,0.05819805,0.00941179,0.05546249,0.09922506,0.02225391,-1.61390269,0.14377612,-0.01176607,0.06994814,0.12877296,0.07047602,-0.21192478,0.07357277,0.04846149,-0.48321742,0.15307766,-0.59791905,-0.04832277,-0.48806265,-0.01546701,0.01657935,0.10363429,0.01925796,-0.06916552,-0.06011949,0.30286229,-0.30148777,0.01552917,0.07722241,0.01410723,0.10184064,0.09860931,0.39524239,-0.30950120,0.07235031,-0.00517946,0.06261855,0.04401771,-0.27116215,0.10958156,0.07152633,-0.03366325,-0.81961405,-0.05088726,0.02394169,-0.02854832,-0.26825139,0.12465258,-0.00412502,-0.02220115,0.17750007,-0.03535082,0.27981427,0.18578906,0.02230387,0.27445093,-0.03901469,-0.17012146,0.03878580,-0.28961149,0.05142647,0.18815587,0.10307561,-0.01012274,-0.02106938,0.10395883,-0.04719510,0.00642350,0.27935699,0.18021606,-0.78638488,0.03435859,-0.21714720,-0.02976101,-0.09105382,-0.03589799,-0.12842919,0.21959431,-0.00300951,0.00069755,-0.20332730,0.21670245,-0.01775725,-0.03593438,-0.17548580,-0.38332483,-0.03945627,-0.02743544,0.00511477,0.00122112,-0.33754453,0.08075221,0.20678577,0.12426888,0.25177366,0.11763386,-1.88526964,0.00182478,-0.47527352,-0.01795400,0.07774696,-0.46542731,-0.33355120,0.13605188,0.02445004,0.06250577,-0.08807692,-0.53270876,0.06351591,-0.16307230,0.04217820,-0.61389685,0.04941440,0.03293856,0.26355091,0.00506328,-0.26538858,0.02674613,-0.05044702,-0.60300046,-0.22404081,0.04176729,0.09162239,0.16814871,0.03073092,-0.01359493,-0.29314101,-0.11857218,0.06173209,-0.24889265,-0.24072929,0.03667710,-0.07158650,0.02270923,-1.08035398,-0.38599405,-0.42613193,0.00716590,0.05432508,-0.23687199,0.02078266,0.12104377,-0.10033334,0.01185983,0.16439974,0.08009481,0.10083789,0.05939688,-0.15774684,0.11230564,0.15739742,-0.03246598,0.12149314,0.04860539,-0.06418498,0.02352618,-0.59639460,-0.27571315,-0.05506184,-1.01618624,
-0.31509888,0.02350060,0.03572922,0.19039774,-0.35097495,0.40798590,-0.23231012,-0.29228166,0.37388206,-0.16542462,0.02005570,-0.06622818,0.20039821,-0.32183605,-0.09357578,0.03347769,-0.69790983,-0.45069513,-0.01273597,-0.02615845,-0.16629677,0.23811789,0.04552621,-0.13494471,0.03334606,-0.06357535,-0.19380979,-0.03255428,0.01671698,-0.55310428,-0.01797802,0.00329483,-0.06526417,0.02681144,-0.09252627,1.09412944,-0.19021481,-0.13406394,-0.22386934,-0.38217774,-0.00779986,0.13846245,0.11152933,-0.01274636,0.15453108,-0.57003736,-0.30812526,-0.07151168,0.00753626,-0.30364415,0.29581439,0.37704924,0.01007618,-0.02796414,-0.06586044,-0.47517860,0.08202378,0.12966071,0.01074847,-0.41612127,-0.36568102,-0.02217807,0.15315095,-0.02173885,-0.33942515,0.06046924,0.09725501,-0.18938799,-0.09089431,-0.28701997,0.41389471,-0.16094480,0.05048017,-0.12372452,-0.19030055,-0.20141375,-0.21979818,-0.20611289,0.02753676,-0.67110282,0.79912287,0.02025940,-0.28537211,-1.02805412,-0.24586636,-0.21610673,-0.18226536,-0.07692759,-0.08585800,-0.05073476,0.65295982,0.20809732,-0.35698968,-0.04329033,-0.45811012,-0.03275818,-0.23170450,0.04033208,0.13530050,-0.05204596,-0.04863170,0.47221506,-0.08132323,0.05414471,0.14013207,0.08169392,-0.64925325,-0.03069598,0.01177419,-0.36701566,-0.58708996,0.23925062,0.36901078,0.15260373,-0.04586763,-0.03307100,-0.33127347,-0.06759901,0.10214590,-0.00906947,0.02890805,-0.72862357,0.27437234,0.11754416,0.07882027,-0.19834204,0.17620568,0.08052430,0.05005510,0.24748783,0.06683425,-0.25343195,-0.08611586,-0.04609243,-0.15934019,0.07619819,-0.11811131,0.08266973,-0.00323666,0.01012513,-0.19233087,0.18631315,-0.73167354,0.03940873,-0.03556618,-0.02823382,0.12374956,-0.08576843,-0.92550462,0.05650672,-0.01931842,0.16263275,0.70187438,-0.52928180,0.09052393,0.18512782,-0.06881942,-0.11450601,0.19540220,-0.03408968,-0.58411145,-0.09847640,0.05695616,-0.34875819,-0.23376407,-0.00168087,-0.16216902,0.04039350,-0.14226840,-0.07047469,0.02414806,-0.05882303,0.37763271,0.16351387,0.03784978,-0.44516259,-0.34360567,-0.37077093,-0.08198900,-0.11765524,0.16501027,-0.32789516,-0.02601739,-0.05512987,-0.04680492,-0.01235587,0.22504753,-0.02592901,-0.00641958,-0.03197325,0.06584921,-0.06595796,0.42076814,-0.05974654,-0.30606097,0.06263044,0.07591464,-0.11745013,0.02466331,-0.86670542,0.09728021,-0.25489339,-0.05737905,-0.17576219,0.01990247,-0.77323467,-0.00364170,-0.36149865,-0.09028061,-0.10442711,-0.47415367,0.03047660,0.12598214,-0.04672789,0.22771211,-0.16785802,-0.57313746,0.07396926,0.19712675,-0.17115419,-0.02764919,0.07370970,-0.31411701,0.32663432,0.03190547,-0.12290280,0.12099455,0.11745963,-0.07786056,0.11786743,0.08657914,-0.04722422,0.11692525,0.04774696,-0.03936563,-0.12518054,0.00649898,-0.12284288,-0.39176190,0.03535407,-0.03609308,0.11058304,0.18697804,0.04419956,-0.30921903,-0.02270957,0.03960296,-0.00835675,-0.00634759,-0.20510717,0.24351256,0.03904939,0.38900602,0.03826221,-0.08319208,0.40064302,
0.03610235,0.19544205,0.11605627,0.02067602,0.07393124,-0.23252589,0.18910500,-0.37043405,0.44897112,0.02684928,0.06468332,0.15735140,-0.13117635,0.15076819,0.03619799,0.08346988,0.27366114,0.09802850,-0.02890417,-0.02757653,0.10799435,-1.07134044,-0.46960977,-0.11252094,0.09351046,-0.14462568,-0.49852765,-0.14069565,-0.03510070,0.14633645,-0.14480549,0.09595916,0.02494536,-0.07098523,0.01221015,-1.14736021,-0.35514885,0.13395342,-0.30588511,0.35006231,0.09600443,0.01996264,-0.19105837,-0.14756986,0.11757683,0.40161774,0.37987208,0.05702903,0.16579914,0.16096793,0.17884970,-0.44885382,-0.33056104,0.16923852,0.15063189,-0.29373586,-0.10752906,-0.31393534,-0.13135558,0.08165516,-0.16488869,0.06946935,-0.02937638,-0.49359393,-0.25303748,-0.02209332,-2.76569676,0.14756829,-0.23587139,0.06959074,0.51186734,-0.46168914,-0.09994624,-0.02086460,0.07778212,0.17042087,0.15037183,-0.69938272,0.31058720,0.46046308,0.05751938,-0.09355903,0.07051983,0.10030215,0.24246089,0.33597374,0.26153290,0.24385627,-0.13732645,0.10803838,-0.08881272,-0.06888802,-0.23321041,-0.17462723,0.20981453,0.04379386,-0.13929626,-0.12232056,-0.01826910,0.10730512,-0.06885235,-1.54702985,0.12897442,-0.06891074,0.10268990,0.08452611,0.31393394,-0.08933631,0.25670868,0.05043733,-0.42117175,-0.04821048,-0.38555002,0.02857756,-0.61229670,-0.04201984,-0.02799680,0.11237253,0.11632150,-0.18778005,-0.09096395,0.52312458,-0.21816835,-0.16595316,0.28172147,-0.05055936,-0.13492654,0.01081244,0.29262638,-0.10475133,0.09287237,-0.21618028,0.03884837,0.04536086,-0.19431129,-0.06126940,0.10242117,-0.09182763,-0.14642544,-0.24551840,0.22222601,0.44672015,0.04256524,0.03336260,-0.01820370,0.05421588,0.05460171,0.00638330,0.05273729,-0.00257883,0.25674820,-0.01299976,-0.00215106,0.01099300,0.23550136,-0.78926545,0.01419090,0.26162991,0.16800937,0.10577972,-0.00466502,0.00944313,0.00898761,0.13098276,0.41543305,-0.01028607,-0.45004976,-0.07865545,0.00231280,-0.35950372,-0.14513381,-0.10383568,-0.21633442,0.32306448,-0.09209956,0.13304192,-0.13744234,0.08490778,-0.37663907,-0.02821223,-0.44829363,-0.31674027,-0.09620491,-0.17315881,-0.17282836,-0.03766978,-0.01837384,0.08773421,0.13105804,0.05051968,0.26453260,0.20765351,-0.77494097,-0.09445226,0.06013428,-0.06663673,-0.06847864,-0.13739480,-0.10585225,0.13917448,-0.33649769,0.05439488,-0.12628952,-0.14011148,0.09049989,0.39473060,-0.13776074,-0.17991604,0.02323309,-0.12522483,0.11813631,-0.10928936,-0.09647755,-0.21203558,0.04249733,-0.00421998,-0.17087772,0.05397770,0.05049054,0.14010909,-0.03267580,-0.10136795,-0.11003559,-0.03430297,-0.24348789,-0.57790333,-0.11178517,-0.10866130,-0.26410434,-0.02378831,-0.56227064,0.29139277,-0.39566943,-0.10266125,0.02282345,0.14692080,0.02655919,0.17177108,-0.00562303,0.11646633,0.12326299,-0.07994746,0.08837450,-0.00691860,-0.21806362,0.31649193,0.04593110,-0.13680975,0.07252581,-0.22501579,0.09735798,-0.11845231,-0.10469825,-0.33607540,-0.01994150,-1.01844323,
-0.23251520,0.09932578,0.08581878,0.09165366,-0.26821604,-0.04465485,-0.01998911,-0.66070640,-0.05621409,0.07852226,0.01688119,-0.07554433,-0.19502619,0.01834823,-0.15463521,0.00676257,-0.25777045,0.11034436,-0.01484088,0.10070437,-0.06401762,0.64337522,-0.22263151,-0.07704846,0.13651097,-0.08791998,-0.14140297,-0.08809185,-0.09270833,0.03923267,-0.05803195,0.09574229,-0.01314322,0.09118282,0.00481950,-0.11965701,0.04297919,-0.11439904,0.17046463,0.07909959,-0.03584084,0.07470425,0.05109181,-0.22067504,0.08487198,0.00569118,-0.10656445,-0.02043838,-0.55858558,0.16354741,0.09851844,0.24443445,-0.18313642,0.01624248,-0.00888229,-0.43252388,-0.16724537,0.25006276,0.05784255,-0.16735950,-0.19901125,-0.02345072,-0.16880018,-0.34889039,-0.31016862,-0.11916248,-0.08345783,0.11262945,0.18946342,-0.01386064,-0.07310695,-0.07544506,0.04351772,0.07269086,0.11960462,-0.16029496,0.16563897,-0.17904155,-0.27358639,0.07831221,-0.09394319,0.69345331,-0.55324757,-0.38911444,-0.07052404,0.09677088,-0.05440018,-0.19426556,0.11394222,0.10860814,-0.21503831,0.27387217,-0.05870517,0.00467248,0.09810980,0.33398953,0.08710019,0.01041781,0.02268697,-0.12050418,-0.15973499,0.74591666,0.12032259,-0.03571673,-0.01292180,-0.02263107,-0.16502763,-0.10120863,-0.12296357,0.12044746,-0.03381779,-0.01586976,0.21802954,-0.13956186,-0.00175008,-0.03998044,0.19010937,-0.11557204,-0.07491866,0.07319766,-0.01575561,-0.17909308,-0.20010409,-0.03022255,0.17074673,-0.01471045,0.03975617,0.03167607,0.01050560,-0.24572961,-0.19478349,0.06392726,0.01096374,0.02714630,-0.58290017,0.00964843,0.01057796,-0.45219040,-0.05600725,0.03520429,0.25671631,0.48133683,-0.14414725,0.04524263,0.03078517,-0.04823786,0.06303193,0.00190803,0.17588910,-0.11870522,-0.31239897,0.05096821,-0.13080868,0.65208375,0.06954984,0.00387184,-0.00906105,-0.16202003,0.03666255,0.22564013,0.02387974,0.61237097,0.08944547,-0.56981790,0.30007610,0.06448726,0.25671387,-0.00956842,-0.01734032,0.05977277,-0.03745063,0.00393826,-0.12417524,0.12799130,0.03211506,-0.26920304,0.05986433,0.09183054,0.03154927,0.05988419,0.06416204,0.13894570,0.09319451,0.05902180,-0.16242251,0.05268440,0.14868005,0.07249493,0.18147756,0.01899640,0.12612703,0.06687583,-0.55809218,-0.02392816,-0.27803078,-0.13250230,-0.01070116,-0.08600837,0.14053980,-0.04098343,0.06832927,0.15483823,0.05322070,-0.39165670,-0.06068387,-0.06852268,0.06073653,-0.64309096,0.04836141,-0.00708016,0.00512557,-0.04135042,0.27261633,0.11259631,-0.47349331,-0.14797635,-0.14676782,-0.03262160,0.03079209,0.17774735,0.03577624,-0.59961021,-0.38717279,-0.28956467,0.08020096,-0.33215812,0.31732488,-0.00167208,0.02296958,-0.05120133,-0.02850933,-0.03916034,-0.01252549,0.04400486,-0.15642664,0.05454356,0.04038674,-0.09819175,0.11772196,0.05396650,-0.00101791,-0.08558007,0.19200930,-0.19960438,-0.21585256,0.22226240,-0.13590537,0.03083799,0.01475304,-0.05948900,0.08111596,0.03400820,0.06093225,-0.40938023,0.02956460,0.22253169,
-0.04488409,0.21513484,0.07171786,-0.09359951,-0.00512577,-0.02395144,0.19293728,-0.33608133,0.24419412,-0.07304090,-0.00551684,0.17816097,0.05226094,0.12829532,0.00345619,-0.02234988,0.23617019,0.14104620,0.04342699,-0.16306567,-0.00642303,-0.66543460,-0.48596331,0.00428050,0.00265856,-0.02808014,-0.35902205,0.08281840,-0.10488032,0.15117437,-0.03106765,0.09846054,0.09258431,0.06005386,0.01002707,-1.13151777,0.04946493,-0.06199643,-0.08661173,0.16752672,0.08380263,0.02214687,-0.04211095,-0.08435056,0.01666898,-0.13734931,0.19956280,-0.07912305,0.13318838,0.07859695,0.17303428,-0.39203697,-0.35263786,0.12090384,-0.01621604,-0.30112302,0.01799466,-0.40046749,-0.03457649,-0.17492020,-0.10922316,0.06046622,-0.10545136,-0.28885630,-0.46704444,-0.05174870,-2.01799488,0.14309958,-0.13481192,0.03457974,0.19748193,-0.24315830,0.12131815,-0.06777406,-0.00325615,-0.02079948,0.15304226,-0.39270559,0.11615945,-0.03947442,-0.09156089,0.01505605,-0.08271041,0.13188246,0.10963792,0.25366315,0.05023207,0.13284773,0.12255839,0.12749393,0.01862667,-0.44053087,-0.11514600,-0.00459693,-0.33925456,-0.26950744,0.07089338,0.03440212,-0.02176265,0.20763265,-0.07446749,-1.58399975,0.14782239,0.02349078,0.00029781,0.06008329,0.15754743,-0.13066716,0.16723348,0.08569977,-0.30366001,-0.15420443,-0.27823007,-0.05804872,-0.36565495,-0.01903111,0.12896968,0.13349561,-0.00149666,-0.03467261,-0.04198078,0.23777698,-0.25730971,0.06358968,0.25578830,-0.02032005,-0.05263723,0.11642803,0.28235000,-0.16053261,-0.04953312,0.09277426,0.08201072,0.07234941,-0.26035953,-0.10337126,0.11239372,-0.10257110,-0.34730348,-0.06647480,0.08316225,0.18524465,-0.23797144,-0.00100758,0.05302443,-0.05151354,0.06717943,-0.16949956,0.23785469,0.09901476,0.12860681,0.10593351,-0.07261265,-0.09685661,0.07808904,-0.42039782,0.03206130,0.04620259,0.10379058,-0.06226198,0.03247371,0.02742231,-0.08178306,0.03407847,0.28611493,0.12492684,-0.85155815,0.04976697,-0.27322769,0.04683240,-0.13609540,-0.09996954,-0.13928303,0.15260190,-0.00419920,0.08095948,-0.20115700,0.16833726,0.05614695,-0.05682283,-0.19533186,-0.25865704,-0.00868951,-0.08705179,-0.04492151,-0.07076361,-0.21003161,-0.04854688,0.14773993,0.05056675,0.01533185,-0.01984295,-1.25551200,0.02357046,-0.52170241,-0.00993822,-0.06270412,-0.08749617,-0.25121689,0.10457586,0.01287185,0.04558703,-0.07516682,-0.34964174,-0.01757125,0.15452635,-0.04163379,-0.49657643,0.04307283,-0.03170545,0.20396085,-0.03959265,-0.23507224,-0.04045123,0.03526395,-0.32884976,-0.02034114,-0.07919649,0.00840981,0.10274275,-0.06336695,-0.07959287,-0.07332264,-0.18040612,0.02333221,-0.51510465,-0.29438666,0.00029932,-0.10184931,-0.03061800,-0.91401100,-0.16059914,-0.40260574,-0.11285544,0.02569085,0.20513268,-0.00668073,0.10523023,-0.00143842,-0.02198393,0.08063033,-0.03114185,0.09447882,0.06190522,-0.10783430,0.18536563,0.00791793,0.05499152,0.01980109,-0.01335922,-0.14782478,0.00499947,-0.49503657,-0.26546308,0.03709868,-0.86479580,
-0.10976353,0.17428428,0.09948510,-0.03192586,0.10505260,-0.20929345,0.12392583,-0.18146209,0.16158067,0.11848474,0.12375976,0.12799893,-0.07274275,0.08001629,0.01515837,-0.04083641,0.24445762,0.12462762,-0.01636015,-0.03789624,0.01886533,-0.65733624,-0.51536578,-0.03801655,0.11258909,-0.04342933,-0.40863311,0.04723077,-0.02692137,0.17191698,-0.00246348,0.01598249,0.00532360,0.00359865,0.01667947,-1.29375100,0.12749261,0.14411791,0.10211912,0.11663102,0.06058427,-0.02356798,-0.05752530,-0.10651758,0.03574581,-0.07098893,0.11418009,-0.03021100,0.04963525,-0.00172925,0.21396606,-0.47187427,-0.32052964,0.00763895,0.01871566,-0.41300860,0.03628993,-0.13311134,0.05936318,-0.16749424,-0.08404987,0.00915768,0.00516539,-0.33567816,-0.49467793,-0.01447647,-1.98654008,0.25020260,-0.08393382,0.01750324,0.17193218,-0.35893452,0.04999456,-0.11691571,-0.27162004,0.01835570,0.19904388,-0.32974574,0.19740357,0.01927417,-0.16056253,0.12979448,-0.06068618,0.09965881,0.13054298,0.33106226,0.10365421,0.13268901,0.21121955,0.21645169,-0.05079735,-0.32800141,-0.21050167,0.04751522,-0.04239453,-0.10477396,0.02357821,-0.02870547,0.03471022,0.18617924,-0.01955023,-1.35941422,0.19381617,-0.02917681,0.02686776,0.13937376,0.16279508,-0.25291416,0.02869147,0.07472773,-0.44320625,0.10229184,-0.44188640,-0.07583117,-0.27764553,-0.05947741,0.09465957,0.01897148,0.08254904,-0.05037282,-0.06181775,0.20797044,-0.28956395,-0.04488647,0.13498041,-0.07590073,0.07836973,0.16016039,0.18957753,-0.38371694,0.02530204,0.02340249,0.03473297,0.10420115,-0.21295758,0.03576169,0.13203982,-0.12377119,-0.36429286,-0.23408157,0.13528977,0.26368827,-0.23196566,-0.07300647,-0.02292853,-0.04936585,0.09813380,-0.09772899,0.34741586,0.13186713,0.12312673,0.18886529,-0.08500742,-0.03458038,0.13987042,-0.29661405,-0.03748959,0.06725983,0.03252783,-0.01576745,-0.03666120,0.11774322,0.02457587,-0.07563081,0.31186876,0.09859776,-0.79882300,0.02730515,-0.15988326,0.04189844,-0.00349869,-0.01972334,-0.06381917,0.23020165,-0.01737189,-0.01843207,-0.23763740,0.13729325,-0.04530310,0.02291918,-0.18042254,-0.35121340,-0.05430125,0.03571188,-0.08340079,-0.10103429,-0.19720040,0.05726444,0.16986901,0.02225029,0.22229284,0.02755996,-0.92129183,-0.05515537,-0.08922171,0.06846895,0.03779351,-0.19173026,-0.24272616,0.15691546,-0.01309656,0.13596398,-0.19824368,-0.33616796,-0.00724687,0.14813203,-0.02770926,-0.47579768,0.05445164,-0.06659533,0.14063413,-0.01046531,-0.34244257,-0.06408472,0.04865268,-0.26095116,-0.08123910,0.04389113,0.04629314,0.18663807,-0.00887950,-0.10744824,-0.21549964,-0.14293045,0.06493877,-0.41931790,-0.35437748,0.04112997,-0.11264922,0.00376462,-1.01122725,0.06337781,-0.38981342,-0.03768836,0.02425438,0.18244623,0.04204504,0.08268844,-0.03631159,-0.01018408,0.06585971,0.07854230,0.05833632,0.01183898,-0.10051911,0.13084568,0.11821017,0.05887576,0.12895682,-0.00516563,-0.03123164,0.04252391,-0.63985687,-0.31150112,0.00198590,-0.93332833,
0.07886557,-0.12568574,0.02172485,-0.71219820,0.07623982,-0.22701627,0.01649464,-0.14116591,0.53088796,-0.50072682,-0.04606580,0.15171878,-0.14587186,-0.05918844,0.02195540,-0.09957939,0.28080839,-0.22891816,-0.02350012,-0.36958855,-0.05712217,-0.23998126,-0.35240692,0.00257631,0.21126465,0.07077658,0.04022025,0.06352432,0.04864329,-0.08626685,-0.15092306,0.10547832,0.01568610,-0.01032715,-0.04285079,-0.44780478,-0.04825505,0.28589919,-0.10531662,0.08001619,0.01767265,-0.01867057,-0.16600682,-0.08209398,0.14179094,-0.47387469,0.09376141,-0.17957638,0.34337524,-0.44570926,-0.05187490,-0.28073034,0.12572174,0.19884360,-0.03244262,-0.14934491,0.05209065,0.20146511,0.05425553,-0.19133522,0.13947493,0.04167064,0.09240672,-0.18438968,-0.14733529,-0.16962849,-1.03710437,0.19489348,-0.12329505,0.04584998,0.30461055,-0.29148227,0.06782533,-0.06071578,0.01032672,0.06296811,-0.34287277,-0.03495275,0.07679138,-0.00212874,0.28124264,0.02005230,0.06946503,0.07292578,-0.01340185,-0.02321745,0.09606020,-0.02265564,-0.01433496,-0.01148700,-0.08528208,-0.00748958,0.14399345,0.01049261,0.57200819,-0.07189674,0.06575624,0.04498972,-0.13591917,-0.01387873,0.01100247,-1.39068878,-0.03346301,0.01810896,-0.08634797,0.08767496,-0.06175885,0.04673202,-0.03512662,-0.01410208,0.02983419,-0.08089148,-0.22090429,0.14417677,-0.06645750,-0.00852057,-0.40513083,-0.04424925,-0.00704794,-0.02450189,-0.07220002,0.19201733,0.00789368,0.11098786,0.31049129,-0.25575978,-0.05867837,0.04576211,0.11266340,0.23782891,-0.01129157,0.00825183,0.03880229,-0.24716808,0.18196774,0.06367376,-0.13391820,0.11897282,-0.42181265,0.11780333,-0.17982182,0.05451642,-0.06312363,-0.20009458,-0.02793636,0.05172146,0.01475630,-0.55192125,-0.03228977,0.00947628,0.27977535,-0.00408570,0.13679022,-0.07868890,-0.02316369,0.05400674,-0.06414969,0.11334742,0.03791795,0.17430687,-0.02667102,0.10479254,-0.16907217,0.05101553,0.07709560,0.14136250,-0.16271991,-0.05501683,0.16192037,-0.00981967,-0.01094168,-0.08344574,0.11966781,0.24668111,-0.03535295,0.13714340,-0.29582381,-0.03758609,-0.01069314,-0.05777726,0.05479863,-0.01596846,-0.07008231,-0.10074817,-0.02679746,-0.22784793,-0.17890455,0.01330404,0.21883237,0.01102278,0.25943342,0.07139787,-0.74564660,-0.04105913,-0.26370710,-0.01377360,0.00526592,0.32029042,-0.04540255,-0.01793143,-0.01932655,-0.01843461,-0.25543469,-0.49503371,0.10045329,0.12543312,-0.01403411,-0.68270886,-0.14943895,-0.03216402,-0.12564701,0.09581655,-0.25438300,-0.09830968,0.11927526,0.10542191,-0.15845507,0.02964496,-0.01923759,0.51172042,0.05071107,0.11435740,-0.12908153,0.03994715,0.01106091,-0.17799871,-0.02229624,0.03700350,0.13663320,0.07246677,-0.62889826,0.21936436,-0.03612263,-0.08116361,-0.07924934,0.25564852,-0.04027978,0.03772790,-0.16619039,0.07488256,-0.02528337,0.09348411,0.09242635,-0.00668911,-0.12525588,0.06235188,0.08847952,0.02081331,0.02620387,-0.35511136,0.19722113,0.02535144,-0.21934438,-0.16500513,-0.10295124,-0.69449300,
0.00602844,-0.10648178,0.19977562,-0.11604492,0.04301370,0.07458549,0.03805716,-0.48993066,0.26431513,-0.08860281,-0.03575805,0.26156199,-0.00894715,0.09708825,-0.06915846,-0.04372152,0.18779524,0.05980039,0.09308540,-0.00384453,0.04615529,-0.93793917,-0.66889471,-0.06398805,0.14890115,0.01999291,-0.32557291,0.15629554,-0.07160722,0.10046714,0.03883097,0.00131446,0.10926925,0.11013825,-0.01661959,-1.76933289,0.04550137,0.16505057,-0.19235311,0.16166160,0.20329793,0.02377927,0.01548593,-0.26748899,-0.06595488,-0.59860098,0.08351699,-0.17115010,-0.10321616,-0.36538774,-0.15925355,-0.13110475,-0.53175598,0.21783973,0.01462582,-0.35639486,0.09102504,-0.54372257,0.05656579,-0.61961967,-0.09469514,0.08781895,0.15834081,-0.38169903,-0.57779282,0.06022615,-2.87638021,-0.06019788,-0.02525547,-0.39234352,0.25171179,-0.31610605,-0.03664829,-0.16476575,-0.07101130,0.15461750,-0.08163840,-0.47205830,0.20161690,-0.06565958,-0.14035870,0.07937273,-0.09240760,0.06695849,0.07048073,0.30376852,-0.00497598,0.38237581,0.06426471,0.21804582,0.06823406,-0.85161775,-0.08448283,0.03421211,-0.47272953,0.00855464,-0.08035678,0.01523690,0.05709025,0.09448002,0.08371749,-1.58720422,0.12486263,0.06158442,0.06989077,0.17481215,0.16473296,-0.31354120,-0.20416933,0.03208961,-0.79183626,0.07137214,-0.45385051,-0.28800428,-0.23755863,0.02024816,0.12275986,0.05562147,0.11524571,0.01480145,-0.01589261,0.14448509,-0.42453548,-0.13128951,0.17326882,0.00623342,0.06791298,-0.00955579,-0.06748042,-0.34650958,0.09994473,-0.09098264,0.20469530,0.08930732,-0.72697377,0.09947954,-0.06087813,-0.02526704,-0.66142350,-0.00812740,0.22415371,0.38889843,-0.31306952,0.26498830,0.00211884,-0.04888600,0.17995109,0.03101086,-0.09227633,0.11789764,0.07028598,0.26315418,-0.25062355,-0.49709505,0.09287123,-0.21498980,0.11250692,0.03333556,0.08298288,-0.01633906,-0.03787487,0.11344554,0.10518549,-0.48622745,0.01692726,0.08472365,-0.46928445,0.04623521,-0.13196409,-0.01254866,0.02578582,0.02269040,-0.05171337,0.11992306,0.01291670,-0.63368732,-0.06977274,0.02089453,0.02315399,0.04625824,-0.21247354,-0.32689235,0.07261220,0.01816237,-0.09517492,-0.04131106,-0.45094499,0.06944578,0.15806323,-0.01779287,0.25261059,0.11364821,-1.18873715,-0.03965580,-0.64000106,0.04843162,0.10222474,-0.41051203,-0.00343963,0.09534991,0.01161669,0.05812968,-0.06979658,-0.44663733,0.13624093,-0.10344829,0.02249568,-0.79245538,0.06073907,0.02782945,0.00947130,0.08159249,-0.18017435,-0.00236537,0.04610012,-0.40608883,-0.34855342,0.04199874,0.10665616,0.19160824,0.03923058,-0.00368927,-0.66679198,-0.27147186,0.09517207,-0.54815644,-0.22900467,0.18065938,-0.03088810,0.10344332,-0.73614848,-0.28437245,-0.18460974,0.11183565,-0.08925710,-0.07115997,-0.01316206,0.20947897,-0.02662188,-0.02023723,0.02967069,0.13043284,0.07581081,0.10685833,-0.02585730,0.09973449,0.16175938,0.05574437,0.10489970,-0.05884355,-0.21038271,-0.01501744,-0.66392285,-0.64583975,0.09733350,0.44021866,
0.04862399,0.13629249,0.22870226,0.02239228,0.08082768,-0.19920543,0.04023395,-0.17849614,0.78330994,0.12334402,0.20616016,0.04927497,0.10247730,-0.02030646,0.02660185,0.05182299,0.07346024,0.11856908,-0.06375723,-0.15809888,0.02501076,-0.78454429,-0.58747137,-0.02434164,0.02288909,-0.01469646,-1.09572077,0.05106052,-0.02603680,0.07241113,0.01252572,0.09681991,0.10326271,0.01302359,0.04561690,-2.65116119,-0.00759276,-0.30666581,-0.21750455,0.13311940,0.02406546,0.07159705,-0.13674210,-0.13720579,0.12120774,-0.73737866,0.02030432,0.03780212,0.00139824,-0.87084156,0.18932731,-0.31454363,-0.19521870,0.04287247,0.09609463,-0.26359588,0.04886313,0.23530847,0.07618255,-0.41088164,-0.07035835,0.02555227,-0.23414487,-0.29244283,-0.34741002,0.09639447,-1.99776888,0.16348748,-1.05505407,0.08662064,0.16247600,-0.45793876,-0.00189525,-0.07425459,-0.39687976,0.06742336,0.27234048,-0.18157728,0.06934015,0.05521789,0.02320737,0.20533361,0.05347335,0.15094723,0.10907386,0.21610463,-0.07986749,0.33231536,0.19828406,0.10449262,-0.03950969,-0.43988413,0.33166856,-0.13163064,-0.24500807,-0.05824134,0.11267138,0.02516535,-0.02078660,0.05620389,-0.04000790,-1.09750593,0.10229062,-0.03415502,0.05786506,0.15266286,0.14157307,-0.08043177,0.12798712,0.06914174,-0.42408830,-0.20567901,-0.43340281,0.03263621,-0.42535281,-0.00320847,0.14240675,0.08005098,0.09520177,0.01795795,-0.00642912,0.37160951,-0.26962844,-0.20114705,0.27261981,0.00110708,-0.11080780,0.15581015,-0.09410873,-0.14356276,-0.03417373,0.09806846,0.11210608,0.21824303,-0.19028878,-0.04430927,0.08585010,-0.08449347,-0.49748424,-0.81339937,0.20385812,0.06789564,-0.43742156,-0.07294469,-0.05917238,-0.05631400,0.00581773,-0.33363312,0.23813979,0.10665629,-0.03932381,-0.02389100,-0.00695763,-0.17546941,0.24337311,-0.52304542,0.04964184,-0.62751871,0.12467709,-0.28653142,0.04327786,0.19156025,0.08412181,-0.03027937,0.33865684,0.06687630,-0.80651611,-0.05982285,-0.30087852,-0.01786549,-0.08574434,-0.27970868,-0.31317768,-0.30011815,0.04663074,0.00767636,-0.26399162,0.10997454,0.00731811,0.04321116,-0.45723933,-0.42106524,-0.15204245,0.00262995,-0.01841605,-0.06779083,-0.17325485,-0.02814794,0.23394501,-0.00359423,0.29182675,-0.02914868,-1.37659001,-0.02752778,-0.58615917,0.02272459,0.16689433,-0.20598212,-0.60599899,0.15342781,0.03949606,0.10666119,-0.25976261,0.03283253,0.14565150,0.30276522,-0.05677988,-0.19417249,-0.00126493,-0.02140881,0.23494728,0.02735775,-0.39664143,-0.04502414,0.15039389,-0.25497147,-0.10192496,0.10306011,-0.05026662,0.24730244,-0.03621526,0.03324300,-0.28601715,-0.10144352,-0.06979869,-0.12762469,0.15411997,-0.10430539,0.06833439,0.14578094,0.03832012,-0.55025274,-0.81155509,0.04432509,0.10061479,-0.46483123,-0.00310835,0.02291200,0.05708558,0.06745531,0.06115348,0.18222979,0.03617765,0.19939975,0.38676992,0.19881751,0.14654876,0.04078503,0.11950235,-0.19171183,-0.21154313,-0.01849839,-0.64877731,-0.28778613,0.04673617,-0.79523665,
-0.05124738,-0.04116907,-0.01299071,-0.00246249,-0.02714663,0.01477806,-0.01831335,0.05026520,0.04631337,-0.04933768,0.01628580,-0.04212021,-0.05313839,-0.03016679,0.03360052,-0.02609415,0.03514194,-0.04539807,-0.03600148,-0.01949219,-0.04261964,0.00386157,0.03259169,-0.05271611,-0.02203251,0.00428183,-0.00432070,-0.01243461,-0.03788305,0.03638358,-0.00246674,0.04170699,0.00152178,-0.00616185,0.05307701,-0.00336615,0.01981140,-0.03081006,-0.05412102,0.00320199,-0.04564676,-0.01280236,-0.02573697,-0.03575158,-0.03322165,0.05058025,-0.04667666,-0.02319157,-0.05556526,0.01551658,-0.03097468,-0.00057171,-0.05787289,-0.00905180,0.04322909,0.04153890,0.01192964,0.04479992,0.03370375,-0.06138062,0.01502767,-0.05101623,-0.02270551,-0.01893175,-0.04849983,0.02839408,-0.04074763,-0.01680229,-0.00018124,-0.05341714,-0.00238586,-0.05597379,-0.03065200,-0.00849370,0.00818916,-0.02594229,0.04967481,-0.03726523,0.05842683,0.01231726,-0.02234045,-0.06344581,0.04157878,0.03848569,-0.01168513,0.01409771,-0.04237963,0.05272306,-0.05280396,-0.05214380,-0.05414853,-0.00186177,-0.05442530,0.01785824,-0.05701975,-0.02616984,0.01510298,-0.02139399,0.00538154,0.00818473,-0.00323628,0.02006299,-0.06173879,0.01708030,0.02804089,-0.05404604,0.02150411,0.04562182,0.04924385,0.04296537,0.03926745,0.02476193,0.00409304,-0.03386929,0.03867302,-0.03865516,-0.05149430,-0.02129217,-0.01386130,-0.03261138,-0.01634188,0.05274995,0.03215734,-0.00150664,0.04179350,0.03401570,0.04171396,0.03027468,-0.01930579,-0.02542930,-0.04442963,-0.06874150,0.05037196,0.02595412,-0.03441540,0.03668835,0.00187997,0.00363297,0.02315203,-0.03636795,0.05112018,0.04517506,-0.05981456,-0.01941682,-0.00560282,-0.05515467,-0.03714872,-0.01770121,-0.01645528,-0.04995870,-0.02826746,-0.01857454,0.03080527,-0.04784338,0.03507264,0.00797157,0.04359554,0.02588093,0.04323801,0.01384134,0.03767219,-0.04902016,0.02544585,-0.04145993,0.00054500,-0.04306993,0.02510606,0.00095908,-0.00651777,0.05553140,0.03617676,-0.06695379,0.00956786,0.04864284,-0.04842088,-0.01316349,-0.04293179,0.05976643,-0.05814618,0.01124587,-0.03014695,0.05060070,-0.00088016,-0.04350569,0.02175802,0.06070825,0.03877024,-0.02867736,0.04296793,-0.00894924,0.00465649,0.01462821,0.05472257,-0.04022316,-0.00892029,0.04554890,-0.01534900,-0.00756484,-0.04843882,0.00117010,0.00543018,-0.05571519,-0.02713098,-0.02962025,0.02640635,-0.03175464,-0.02183051,0.05826303,-0.04758887,0.01432352,0.00004467,-0.06046505,-0.04198966,0.02610251,0.02089678,0.01937444,0.04730500,0.00026874,-0.00544621,0.04777522,0.04034955,0.01988780,-0.01798004,-0.05583208,-0.01081287,0.04458276,-0.00824721,0.05254515,-0.01002912,0.02920019,-0.03608859,0.05441508,0.03615343,0.01141592,0.04908751,-0.06076974,-0.04310864,-0.05879574,0.02600020,-0.05979979,-0.06043063,0.01742013,-0.05488931,-0.01118805,-0.03957361,0.01111341,0.01451939,0.01673928,-0.03773367,0.02438034,-0.02315150,-0.03525788,0.01621771,0.04613491,-0.04415329,0.02134498,
-0.13196974,0.27529731,-0.14267783,0.26800644,0.06118486,0.17303666,0.02583035,0.10311168,0.20243414,0.06062531,0.20736608,0.03074367,-0.04146573,0.08666006,0.05422910,0.21229738,0.12449390,0.00537544,-0.02476617,-0.05024197,0.10035456,-1.02127039,-0.35587674,-0.24462359,0.19740082,0.02390158,-0.79649597,-0.02032774,-0.00715494,0.05843474,-0.13047589,0.10452916,0.05606500,-0.05899416,-0.00480742,-1.60682786,-0.20228031,0.51476091,-0.29252031,0.02518143,0.08489863,0.07126902,-0.18664409,-0.41237554,0.12120546,-0.22792873,0.14466320,0.16232431,-0.06996601,-0.21439253,-0.28053769,-0.33318356,-0.54218370,0.05317579,0.03461425,-0.74480623,-0.20492569,-0.99426568,0.00216463,-0.53783977,-0.16514494,0.06302869,0.18606992,-0.17838214,-0.23404689,-0.03390846,-3.15401554,0.03336538,-0.17875764,0.09074824,0.48294157,-0.12233880,0.09552344,-0.15721507,-0.42618164,-0.07480218,0.34565058,-0.85561371,0.10439506,0.03471947,-0.22486207,0.18529423,-0.10848869,0.09965789,0.21354757,0.20302203,-0.06071778,0.29564139,0.05925293,-0.12580772,0.04090805,-0.66868919,-0.29823041,-0.06318176,0.39805916,0.10706149,0.01949806,0.04468654,0.02618868,0.18330224,-0.06091610,-1.50180745,0.10826400,-0.10101592,-0.03755029,0.04420704,0.21435720,-0.06655210,0.05563763,-0.00351463,-0.52675378,-0.08453140,-0.51922190,-0.14310610,-0.71907347,-0.04850934,0.21385659,0.09851517,0.18640035,-0.00870338,-0.17303677,0.32944810,-0.11846744,-0.14092663,0.30953941,-0.01695695,-0.07331444,0.13896726,0.11685241,0.13471711,0.03620615,-0.26221752,-0.02251288,-0.11785263,-0.75526285,-0.01823438,0.18465149,-0.28141850,-0.59851670,-0.56674403,-0.18904372,0.04553260,-0.50158095,0.06770100,0.05102384,-0.01324856,-0.04589342,-0.17004047,-0.04683610,0.08121953,-0.64698511,0.16838935,-0.02546013,-0.25971904,0.04883526,-0.66639638,0.05516242,-0.10173593,0.03879637,-0.10565480,0.16177411,0.32222036,-0.05386213,-0.22106969,0.44165704,0.09126101,-0.38160142,0.10256528,-0.30148867,-0.17839913,-0.24015002,-0.04367175,-1.01493776,0.21769500,-0.10290540,-0.34064370,-0.24340512,0.25015846,-0.16565073,0.08745637,-0.32587236,-0.44139516,-0.07696435,-0.01626652,-0.07984564,-0.02840021,-1.48372221,-0.07527045,0.12309009,0.10108325,-0.01393566,0.02861575,-0.83247483,-0.06888835,-0.60429591,-0.00594490,-0.34012333,0.03248849,-0.00660049,0.12634186,-0.12037265,0.10120317,-0.22574617,-0.81339139,0.22876437,0.02568294,0.00934415,-0.67669302,-0.16303284,-0.12134667,0.19535807,-0.02199182,-0.09555242,-0.01409126,0.18571694,-0.20412841,-0.26218480,0.12926008,0.02633725,0.28912055,0.05072192,0.05207704,-0.50511020,-0.05605831,-0.11847412,-0.23013246,-0.07052442,-0.20562218,0.03565777,-0.26123509,-0.80533111,-0.14971964,0.05593787,0.00797715,0.12959647,0.20687081,-0.01193045,0.01798900,-0.31494069,-0.07707413,0.07580847,-0.61007482,0.15848456,0.24382907,-0.36210164,0.30504340,0.22594459,-0.02780402,0.09545710,-0.18179727,0.14261711,-0.05344590,-0.62329262,-0.77023274,-0.05983988,-1.30427325,
