// Neural Network File Format by Kyle Julian, Stanford 2016
3,8,17,32,
8,32,32,17,
0,
0
0
0
0
-4.31335e-01,-1.45453e+00,-6.02126e-01,8.19066e-01,-1.94252e-01,7.79636e-01,-1.45340e+00,8.83550e-01,
1.23509e-01,-1.69439e-02,5.37442e-01,-1.08895e+00,3.51202e-01,2.65807e-01,5.48446e-01,-7.08558e-01,
-1.45971e+00,7.46444e-01,6.30507e-01,-3.68620e-01,3.51505e-01,6.72367e-01,6.77230e-01,3.53920e-01,
2.64966e-01,-1.40607e-01,3.57460e-01,1.12322e+00,-1.20822e+00,-4.03437e-01,1.05247e-01,1.27223e+00,
1.90968e-01,2.40584e-01,2.97517e-01,8.89991e-01,6.30520e-01,-1.28465e+00,5.42416e-01,6.09747e-01,
-1.09613e+00,8.94584e-01,-2.26657e+00,-2.03824e-01,7.10337e-02,6.35284e-01,-8.17248e-01,5.28636e-01,
3.43328e-01,1.53481e-01,4.58950e-01,-7.90841e-01,-9.27938e-01,3.58926e-02,2.80423e-01,-8.14346e-01,
1.66767e+00,8.12162e-01,-1.09926e+00,1.02710e-01,1.13438e+00,7.77598e-01,-2.87536e-01,2.98813e-01,
3.52875e-02,4.25817e-02,1.56150e+00,3.78343e-01,-1.04242e+00,-4.16621e-01,7.54042e-02,1.92310e-01,
5.85756e-01,-1.24051e+00,9.57426e-01,6.64298e-01,8.71477e-01,-1.92805e+00,1.72372e+00,4.47785e-01,
-3.28407e-01,-6.84811e-02,-1.92820e+00,-4.36989e-01,6.88551e-01,3.09511e-01,-1.15537e+00,-9.66648e-03,
5.23639e-02,3.53477e-03,2.07796e-01,-6.70275e-01,3.98058e-01,6.03488e-01,-1.96278e-01,-9.53392e-01,
-6.60641e-01,5.97481e-01,-5.78362e-01,-4.95577e-01,-2.04195e+00,1.04262e+00,-5.77254e-01,-7.21547e-01,
-1.32216e+00,9.17725e-01,-1.66616e+00,-6.21720e-01,-1.09169e-01,8.32940e-01,-3.78848e-01,4.13042e-01,
1.48317e-01,1.86546e+00,-3.82130e-01,-7.42738e-01,-3.65430e-01,2.66449e-01,1.87538e-01,-3.88248e-01,
3.59683e-01,4.59010e-01,1.11959e+00,1.13535e+00,7.60749e-01,-8.35217e-01,5.01533e-01,7.13885e-01,
7.76041e-01,2.20129e+00,-6.88544e-01,-5.91744e-01,5.86973e-01,2.10938e-01,-3.24878e-01,-2.64417e-01,
-2.16226e-01,2.00709e+00,-2.48825e-01,-6.05602e-01,-1.70727e-01,6.32072e-02,7.37684e-01,-1.30269e-01,
3.36752e-02,-4.82673e-02,2.65010e-01,-1.05015e+00,-6.90263e-01,-1.57954e-01,1.44174e-01,-1.06658e+00,
4.57814e-01,2.00473e+00,1.63834e+00,5.87650e-01,6.24951e-01,9.20555e-01,1.19425e+00,7.58001e-01,
5.15284e-01,2.15413e-01,1.83008e+00,3.63489e-01,-4.77410e-01,-8.05283e-03,2.77054e-01,-1.01365e-01,
1.09557e-01,1.09245e-01,1.02264e+00,-8.89178e-01,-2.03606e-01,3.56570e-01,-5.81751e-02,-6.73419e-01,
-1.93495e-01,4.79121e-01,1.31834e+00,2.22909e-01,-1.16472e-01,-6.91642e-01,-8.33849e-01,-4.15289e-01,
3.53494e-01,1.71053e-01,1.12571e+00,-8.68913e-01,-2.98018e-01,3.23619e-01,5.50978e-01,-9.88724e-01,
2.58588e+00,-2.43902e+00,-1.96894e-01,2.53134e-01,-3.49359e-01,7.24065e-01,-2.37156e-01,1.09111e-01,
2.35817e+00,-2.25820e+00,1.32151e-01,-5.57713e-01,-4.93080e-01,1.26344e+00,1.50069e-01,-1.36618e-01,
3.07277e-01,-9.08152e-01,-1.69951e+00,1.87111e+00,9.95964e-01,-6.68023e-01,-1.25834e+00,1.84751e+00,
-2.21496e-01,9.73424e-01,-6.12071e-01,1.56416e+00,1.17450e+00,5.75964e-02,3.94712e-01,1.24294e+00,
-7.68888e-02,5.37861e-02,-1.00896e+00,-9.84323e-01,8.52520e-01,3.26118e-01,-6.44377e-02,6.22691e-01,
-1.90949e+00,8.35394e-01,2.60042e+00,-3.68512e-01,2.52693e-01,-1.53075e-01,2.26462e+00,7.35581e-01,
-2.88813e+00,-8.16823e-01,1.26187e+00,6.61019e-01,-1.90715e+00,-3.74868e-01,9.98852e-01,1.12566e+00,
-1.20424e+00,-1.23575e-01,-1.03555e-02,-6.43684e-01,-4.66778e-01,1.14794e+00,-9.29851e-01,-1.36147e+00,
4.37534e+00,
-3.84722e+00,
2.71091e+00,
-2.52164e+00,
-3.75838e+00,
-1.25796e+00,
-2.94568e+00,
3.51163e+00,
-3.56407e+00,
5.23245e+00,
-2.47170e+00,
-3.16900e+00,
-1.61881e+00,
-2.56642e+00,
2.11891e+00,
-2.68892e+00,
2.09516e+00,
2.22904e+00,
-2.90885e+00,
-2.19971e+00,
-4.46422e+00,
-3.48178e+00,
-4.12205e+00,
-3.36314e+00,
6.98087e+00,
4.77953e+00,
3.84182e+00,
-2.76244e+00,
-2.80754e+00,
5.08865e+00,
5.70071e+00,
5.38092e+00,
-1.15869e+00,1.26276e+00,-1.52411e+00,-8.43518e-01,7.74667e-01,6.03740e-01,1.19775e-01,-5.60612e-01,5.63669e-01,-2.24061e-02,9.83063e-01,1.02984e+00,7.83255e-01,9.33841e-01,-1.15975e+00,7.94869e-01,-8.99014e-01,-1.12152e+00,3.55189e-01,2.63859e-01,7.76302e-01,1.06810e+00,1.23633e+00,6.83883e-01,4.31276e-01,5.05247e-01,-4.21480e-01,-7.60116e-01,9.95221e-01,1.18004e-01,-7.00422e-01,-9.33072e-01,
1.33939e+00,5.99574e-03,1.43699e+00,1.87004e-01,2.54957e-01,3.36631e-01,-9.09127e-01,1.87091e+00,-4.11098e-01,-7.30449e-01,6.50262e-01,-9.63869e-02,6.14575e-01,-1.98328e-01,1.76411e+00,1.35407e-01,2.17999e+00,1.60789e+00,-9.08749e-01,9.39662e-01,-1.76522e+00,-2.38165e-01,-5.60533e-01,-4.68863e-01,-1.08952e+00,-1.48634e+00,-1.37936e-01,-7.02688e-01,5.77811e-01,1.57539e+00,2.02202e+00,2.03106e+00,
-4.56436e-01,4.84162e-01,-2.90234e-01,2.29736e-01,4.79285e-01,1.03845e+00,3.52203e-01,-2.21883e-01,1.07604e+00,-8.46841e-01,9.24782e-01,2.95532e-01,5.81904e-01,1.03719e+00,-6.68694e-01,8.10147e-01,-9.12723e-01,-3.58546e-01,2.10526e-01,3.92073e-01,9.09913e-01,2.10950e-01,1.99767e-01,3.89898e-01,-5.61913e-01,-4.20516e-01,3.20996e-01,1.48666e+00,7.96556e-01,-2.41339e-01,-7.69282e-01,-1.26871e+00,
-3.26913e-01,-6.27379e-02,-2.48908e-01,6.43351e-01,7.04185e-01,9.12525e-01,3.31580e-01,-4.51383e-01,1.31026e+00,-1.05191e+00,9.04450e-01,9.40353e-02,8.27367e-01,1.16089e+00,-3.10521e-01,9.11281e-01,-8.97048e-01,-2.37809e-01,-2.81255e-01,5.85464e-01,1.01079e+00,3.67241e-02,7.25118e-01,4.28744e-01,-7.50072e-01,-5.18314e-01,3.64820e-01,1.37888e+00,8.80013e-02,-4.51675e-01,-7.71754e-01,-6.19280e-01,
-6.88087e-01,5.58320e-01,-4.96393e-01,1.35340e-01,1.08078e+00,1.04184e+00,3.25759e-01,-1.47624e-01,1.03421e+00,-2.55266e-01,5.39308e-01,3.51809e-01,1.07207e-01,1.08369e+00,-5.58848e-01,9.18060e-01,-5.45439e-01,-5.16119e-01,2.26100e-01,4.12483e-01,1.31120e+00,6.28925e-01,9.56083e-01,6.70582e-01,1.22012e-01,2.15028e-01,1.15179e-01,1.23532e+00,8.66948e-01,-3.05208e-01,-7.67851e-01,-1.28842e+00,
-5.62837e-01,4.44829e-01,-1.24424e+00,9.61062e-01,5.39411e-01,4.77251e-01,6.97315e-01,-1.07373e+00,1.10699e+00,-2.98294e-01,8.61498e-01,7.12233e-01,1.42811e+00,1.22537e+00,-6.67336e-01,4.31817e-01,-1.00912e+00,-6.18622e-01,2.53651e-01,7.04714e-01,4.21271e-01,7.35071e-01,9.97219e-01,7.10689e-01,1.05333e-01,5.25833e-01,-5.21149e-01,-4.58554e-01,8.03416e-01,9.06167e-02,4.14863e-01,-6.62692e-01,
-1.07732e+00,7.62353e-01,-2.91867e-01,2.45322e-01,2.89597e-01,5.01541e-01,3.41421e-01,-2.32924e-01,1.08277e+00,-8.65285e-04,5.49522e-01,8.23527e-01,6.32032e-01,1.24300e+00,-5.90351e-01,7.84563e-01,-7.59212e-01,-9.08121e-01,-1.47841e-01,7.53768e-01,8.28567e-01,7.62673e-01,8.15638e-01,5.26918e-01,1.69252e-02,1.63896e-02,-6.60933e-01,7.95232e-01,1.10047e+00,-5.09494e-02,-9.98622e-01,-7.58477e-01,
-1.02872e-01,1.95933e-01,-5.62313e-01,8.30358e-01,4.92403e-01,1.05555e+00,5.62671e-01,-7.17728e-01,1.28445e+00,-1.44388e-01,7.11303e-01,1.91940e-01,8.80677e-01,1.22859e+00,-3.89188e-01,5.08391e-01,-1.06198e+00,-2.43088e-01,3.91061e-01,4.90864e-01,9.15385e-01,6.26556e-01,9.38696e-01,6.46303e-01,1.02743e-01,-1.20819e-02,5.89137e-02,5.71028e-01,-5.93924e-02,-2.34697e-01,4.41026e-02,-7.51714e-01,
-8.09566e-01,1.03506e+00,-1.56944e+00,-2.08684e-01,7.00358e-01,1.52477e+00,3.35303e-01,-1.01138e+00,9.22086e-01,-7.00653e-01,1.04765e+00,1.05562e+00,9.41031e-01,1.10575e+00,-1.25580e+00,8.56080e-01,-1.10245e+00,-1.24991e+00,6.81785e-01,4.56327e-01,5.54284e-01,1.12276e+00,1.47628e+00,8.66515e-01,-1.51962e-01,3.86377e-01,-1.22125e+00,5.00277e-01,9.73243e-01,6.48266e-02,-6.88153e-01,-1.28183e+00,
-3.83434e-01,4.23362e-01,-6.62062e-01,7.00905e-01,1.13975e+00,7.51332e-01,5.63601e-01,7.79910e-02,1.15379e+00,-3.57225e-01,7.55974e-01,5.65509e-01,1.28593e-01,1.11231e+00,-5.70758e-01,8.56510e-01,-5.24107e-01,-6.25342e-01,1.52640e-01,3.49499e-01,8.35392e-01,6.64521e-01,8.88594e-01,5.34279e-01,1.80003e-01,3.66940e-01,-2.88025e-02,1.24432e+00,1.24005e+00,-3.86909e-01,-3.42659e-01,-8.05925e-01,
1.49574e+00,-2.36227e-01,9.03941e-01,3.10502e-01,-2.43062e-01,6.32708e-01,-3.12824e-01,1.08363e+00,-4.49418e-01,1.69573e+00,2.58769e-01,1.47615e-02,6.45879e-01,-1.38128e-01,1.44779e+00,-9.93725e-02,1.69994e+00,1.18525e+00,-2.86323e-02,4.41639e-01,-9.43795e-01,-5.44107e-01,-7.92379e-01,-3.27974e-01,5.76186e-01,3.83008e-01,1.20167e+00,1.60206e-01,1.93464e-01,1.33853e+00,2.14231e+00,1.99542e+00,
-2.17652e-01,3.78989e-01,-6.80165e-01,1.07845e+00,7.53833e-01,7.98276e-01,1.06147e-02,1.33509e-01,1.40609e+00,-4.01743e-02,6.58304e-01,3.76589e-01,9.92001e-01,1.27208e+00,-6.82869e-01,8.87121e-01,-9.65250e-01,-4.63778e-01,2.35948e-03,7.04663e-01,1.04393e+00,8.36997e-01,1.42333e+00,7.14045e-01,9.51857e-02,3.38998e-01,-4.77898e-01,6.75564e-01,3.67283e-01,-1.00277e-01,-4.48048e-01,-3.10731e-01,
1.70027e+00,-2.57986e-01,1.18368e+00,3.34173e-01,-1.01668e-01,3.79532e-01,-2.81306e-02,1.80385e+00,-5.64096e-01,2.38215e+00,3.73564e-01,3.75499e-02,8.03011e-01,-3.27402e-01,1.84676e+00,1.35806e-01,2.20276e+00,1.93949e+00,3.15721e-01,5.31732e-01,-7.45266e-01,-6.20604e-01,-1.23192e+00,-3.16741e-01,8.13461e-01,5.31174e-01,1.10669e+00,-3.45607e-02,-1.98262e-01,1.36499e+00,1.85017e+00,2.61821e+00,
-8.00532e-01,7.71458e-02,5.00767e-02,-2.50303e-01,-5.77531e-02,-7.95908e-03,-2.10347e-01,-1.51108e-01,-1.30221e+00,-5.45862e-02,1.95848e-02,2.64916e-01,4.74280e-02,3.25896e-01,2.51340e-02,-1.86822e-01,3.30662e-01,1.66322e-01,1.31429e-01,2.54179e-02,-1.15723e-01,-5.58167e-02,-2.46001e-01,-1.64463e-01,-8.95948e-02,-1.73575e-01,-3.81874e-01,1.02853e-01,4.23131e-01,1.18473e-02,-3.31038e-01,2.56615e-02,
-2.89100e-01,-1.92614e-01,-1.95781e+00,-1.64866e+00,-8.64251e-01,-1.17058e-01,2.68068e-01,1.34296e+00,-2.32047e+00,2.56812e+00,6.59664e-02,1.45825e-01,-4.39557e-01,-1.10948e+00,2.36238e-01,-8.46277e-01,7.31090e-01,-1.99963e-01,-1.73038e-01,-1.67250e-01,7.79316e-01,-7.42260e-01,-1.49406e+00,-1.49989e-01,1.91829e+00,1.88709e+00,1.15667e+00,-2.94238e-01,2.64034e-01,-1.92237e+00,-9.32158e-01,7.94308e-01,
-2.52006e-01,-2.14108e-01,1.43984e-01,8.51815e-01,8.37727e-01,1.19443e+00,2.51329e-01,-7.02164e-01,1.50487e+00,-8.08553e-01,8.53693e-01,-2.33020e-01,1.09801e+00,1.40245e+00,-2.44665e-01,1.02660e+00,-9.69196e-01,-6.36848e-02,-1.15211e-01,4.80033e-01,8.40246e-01,3.71924e-01,8.27610e-01,3.73920e-01,-6.43222e-01,-5.32212e-01,2.78772e-02,1.51085e+00,3.45545e-02,-7.12253e-02,-4.30378e-01,-9.12976e-01,
1.71249e+00,-3.54211e-01,1.36701e+00,6.18908e-01,4.11278e-01,8.64384e-02,-1.47151e+00,2.00321e+00,-2.18051e-01,3.00785e-02,4.50695e-01,-3.83279e-01,4.45178e-01,-1.94252e-01,1.84692e+00,5.35106e-01,2.25695e+00,1.88229e+00,-1.05553e+00,9.98266e-01,-1.55056e+00,-6.45705e-01,-6.02141e-01,-7.70792e-01,-5.36853e-01,-7.54516e-01,8.18429e-01,-2.55283e-01,5.53096e-01,1.72993e+00,2.00882e+00,2.25145e+00,
-8.95405e-01,3.61075e-01,-4.37626e-01,8.19265e-01,2.80018e-01,3.66753e-01,3.05355e-01,1.94425e-02,1.46340e+00,6.07375e-02,4.84486e-01,5.64688e-01,1.12246e+00,1.07948e+00,-3.76258e-01,3.85006e-01,-6.88736e-01,-9.02151e-01,-7.61285e-02,8.32495e-01,1.14056e+00,7.97690e-01,1.23794e+00,5.82855e-01,8.82146e-02,2.03679e-01,8.10200e-02,5.02328e-01,1.68142e-01,-1.12913e-01,-7.82459e-01,-7.41069e-01,
-6.69075e-01,7.86227e-01,-1.12092e+00,5.99869e-01,6.06037e-01,8.74267e-01,5.89706e-01,2.23709e-01,6.80760e-01,-3.27227e-01,1.00570e+00,8.10014e-01,1.10778e+00,1.31120e+00,-6.58480e-01,9.74308e-01,-9.45154e-01,-7.30712e-01,6.02914e-01,4.65443e-01,4.02583e-01,8.87159e-01,6.24169e-01,6.91653e-01,-1.93170e-02,3.62359e-01,1.99868e-01,1.21587e+00,1.69295e+00,1.58836e-01,2.47225e-01,-1.01128e+00,
-2.19302e-01,2.46414e-01,-1.55205e-01,3.94878e-01,7.62166e-01,9.31167e-01,3.76735e-01,-4.56254e-01,1.28229e+00,-1.08528e+00,9.08205e-01,3.75867e-01,7.96413e-01,1.18030e+00,-3.37473e-01,1.15689e+00,-7.63949e-01,-7.22902e-01,5.23343e-02,4.09839e-01,1.49084e+00,3.46023e-01,4.65152e-01,4.63081e-01,-9.52526e-01,-4.83598e-01,1.81068e-01,1.49416e+00,-1.46095e-01,-6.17791e-01,-1.28862e+00,-1.30848e+00,
-7.21750e-01,3.60188e-01,-1.01415e+00,1.03925e+00,4.95174e-01,6.80825e-01,3.59813e-01,-1.13062e+00,1.18457e+00,-2.07108e-01,9.60234e-01,7.34635e-01,1.08224e+00,1.31182e+00,-8.36661e-01,6.54537e-01,-1.30570e+00,-9.50456e-01,1.60425e-01,3.91329e-01,7.94448e-01,5.95007e-01,1.39655e+00,4.23462e-01,1.08900e-01,5.96033e-01,-5.80669e-01,-3.44272e-01,5.67711e-01,3.75524e-03,-2.40379e-02,-6.26676e-01,
1.40379e+00,-5.21136e-02,3.28149e-01,1.70010e-02,-3.09051e-01,5.14209e-01,2.00624e-01,2.51836e-01,-1.19543e+00,2.48448e+00,3.26783e-01,1.11287e-01,2.08371e-01,-1.56901e-01,5.83266e-01,-5.74732e-01,7.27068e-01,6.78915e-01,3.69740e-01,-3.49918e-01,-4.98684e-01,-3.80383e-01,-1.39257e+00,-1.31201e-01,1.22152e+00,1.05531e+00,1.03425e+00,-7.29975e-01,2.29290e-01,6.97490e-01,2.05305e+00,2.55571e+00,
-3.46718e-01,4.49380e-01,-8.69940e-01,8.59186e-01,9.90404e-01,9.77845e-01,3.59083e-01,-4.48949e-01,1.33077e+00,-7.02825e-01,7.68345e-01,4.61842e-01,1.21716e+00,1.22614e+00,-5.04540e-01,1.14764e+00,-1.05642e+00,-4.20447e-01,1.57635e-01,9.49993e-01,6.69015e-01,8.94207e-02,8.57358e-01,4.62883e-01,-9.92930e-01,-6.37684e-01,-2.86616e-01,1.30026e+00,2.57994e-01,-3.47191e-01,-8.41530e-01,-1.37991e+00,
1.59965e+00,-2.25118e-01,1.08344e+00,4.15720e-01,6.91226e-02,3.91938e-01,-1.46741e+00,1.42406e+00,-3.80559e-01,3.20833e-01,4.71208e-01,-2.70502e-01,7.32294e-01,-3.03414e-01,1.44263e+00,1.99157e-01,2.02867e+00,1.50686e+00,-8.79899e-01,7.72033e-01,-1.82021e+00,-5.22126e-01,-5.79376e-01,-9.05145e-01,-5.14767e-01,-7.05848e-01,1.11250e+00,-1.84576e-01,6.10668e-01,1.46067e+00,2.27000e+00,1.66080e+00,
-2.49222e-01,4.51221e-01,-3.55461e-01,5.27808e-01,1.27706e+00,1.00757e+00,6.35470e-01,-1.48569e+00,8.98824e-01,-5.61396e-01,1.07622e+00,4.56702e-01,8.14094e-01,1.38572e+00,-3.70635e-01,9.91717e-01,-9.34524e-01,-3.68088e-01,6.68158e-01,3.22529e-01,3.59020e-01,4.54150e-01,6.02824e-01,5.55038e-01,8.82407e-02,3.77579e-01,2.60837e-01,5.66717e-01,5.89320e-01,-1.88007e-01,-1.89494e-01,-2.86399e-01,
-5.28050e-01,4.28206e-01,-2.58656e-01,2.37044e-01,9.58420e-01,1.29364e+00,1.65524e-01,-3.02574e-01,1.23694e+00,-9.49550e-01,9.95612e-01,4.51964e-01,5.44532e-01,1.02585e+00,-5.34668e-01,1.29732e+00,-8.47874e-01,-7.53569e-01,1.70735e-02,4.55940e-01,1.20218e+00,4.11696e-01,1.20547e-01,4.46193e-01,-6.61279e-01,-4.82482e-01,3.87262e-01,1.36413e+00,8.95469e-01,-2.14687e-01,-1.04585e+00,-1.34242e+00,
-4.11513e-01,5.31936e-01,-2.64228e-01,4.06958e-01,9.53370e-01,7.10668e-01,7.99905e-01,-7.03224e-01,9.06358e-01,-2.77527e-01,4.94348e-01,5.12757e-01,4.08594e-01,1.28006e+00,-5.78730e-01,8.33907e-01,-1.07506e+00,-6.11327e-01,4.97463e-01,3.82297e-01,8.57021e-01,5.66544e-01,1.17048e+00,7.09342e-01,4.39805e-02,2.69530e-01,9.71454e-02,9.03871e-01,7.64976e-01,-9.25951e-03,-1.57943e-01,-4.45874e-01,
-2.81514e-01,5.54484e-01,-4.25733e-01,7.02538e-01,1.09362e+00,8.43379e-01,1.83734e-01,-3.73412e-02,9.53872e-01,-4.21094e-01,6.86919e-01,4.32072e-01,1.98825e-01,8.35376e-01,-4.39516e-01,1.01486e+00,-4.09381e-01,-7.70313e-01,1.84281e-01,-5.03862e-02,8.44860e-01,6.10311e-01,1.48247e-01,5.80184e-01,2.12089e-01,2.42150e-01,4.44550e-01,1.51916e+00,1.35096e+00,-1.78986e-01,-4.27503e-01,-7.12893e-01,
-5.36357e-01,8.53377e-01,-1.99337e+00,1.16305e-01,5.84083e-01,1.29198e+00,8.25302e-01,-1.16191e+00,8.99569e-01,-5.41657e-01,1.06716e+00,7.11820e-01,9.01953e-01,9.86097e-01,-9.26461e-01,1.19072e+00,-9.52938e-01,-1.56961e+00,7.61302e-01,5.75365e-01,1.01400e+00,9.93286e-01,1.80989e+00,9.17167e-01,-1.64434e-01,2.49935e-01,-1.00356e+00,6.12787e-01,3.16955e-01,3.31140e-02,-6.45460e-01,-1.00744e+00,
4.94854e-01,-4.79460e-01,-1.73380e+00,-2.60585e-01,1.61745e-01,-1.04609e+00,2.59579e-01,1.98986e+00,-1.51482e+00,2.54563e+00,-1.17966e+00,-4.83535e-01,1.35284e+00,-2.62642e+00,1.14213e+00,-5.44722e-01,1.41201e+00,1.82030e-01,5.09057e-01,-1.25674e+00,1.71688e-01,-5.95464e-01,-1.47081e+00,3.25396e-01,1.83370e+00,1.75355e+00,1.62460e+00,1.26179e-01,-1.58180e+00,-1.04130e+00,1.12904e+00,7.62411e-01,
3.02537e-02,4.85343e-01,-4.57494e-01,7.53418e-01,9.83274e-01,8.15991e-01,5.84958e-01,-8.84100e-01,1.04994e+00,-2.91309e-01,5.91048e-01,3.35534e-01,4.78093e-01,1.30466e+00,-4.51264e-01,7.91013e-01,-9.65900e-01,-2.23670e-01,4.43591e-01,3.29214e-01,8.31724e-01,8.69894e-01,1.49730e+00,6.74979e-01,5.74303e-02,1.66292e-01,-1.42938e-01,8.41432e-01,4.92663e-01,-7.46984e-02,-1.63719e-01,-4.78797e-01,
-1.74714e-01,3.05611e-01,-1.38748e-01,4.84351e-01,1.30364e+00,1.01610e+00,1.60714e-01,-6.06658e-01,9.59426e-01,-1.01930e+00,6.92369e-01,3.42937e-01,1.04955e+00,9.90021e-01,-4.74858e-01,1.26512e+00,-7.84299e-01,-4.52949e-01,2.51761e-01,5.61626e-01,1.14878e+00,1.27087e-01,6.10548e-01,3.60769e-01,-7.80133e-01,-3.30862e-01,-2.05835e-01,1.35230e+00,-5.54399e-02,-5.03585e-01,-8.20474e-01,-1.37522e+00,
-2.46529e+00,
5.57215e+00,
-2.75809e+00,
-3.43617e+00,
-4.45375e+00,
-3.26466e+00,
-4.68814e+00,
-5.00339e+00,
-3.02743e+00,
-4.57452e+00,
7.50482e+00,
-5.42887e+00,
7.99897e+00,
1.53742e-01,
7.33360e+00,
-3.76038e+00,
6.45535e+00,
-2.94705e+00,
-3.35374e+00,
-3.07986e+00,
-4.20507e+00,
8.02344e+00,
-2.27789e+00,
6.59718e+00,
-3.26096e+00,
-2.81752e+00,
-4.91048e+00,
-4.88285e+00,
-3.33223e+00,
7.59194e+00,
-4.95521e+00,
-3.03791e+00,
-7.98744e-01,1.02155e+00,-8.12960e-01,-1.19317e+00,-6.12227e-01,-6.66061e-01,-7.83663e-01,-7.50554e-01,-9.20004e-01,-6.58091e-01,8.35516e-01,-7.11874e-01,1.15101e+00,3.26267e-01,1.53867e+00,-9.47040e-01,1.16752e+00,-4.86234e-01,-7.33595e-01,-1.23224e+00,-7.52076e-01,1.52297e+00,-1.15047e+00,8.83625e-01,-5.41848e-01,-9.98657e-01,-5.98911e-01,-7.14556e-01,-1.02087e+00,1.69761e+00,-5.81728e-01,-1.14045e+00,
-8.14595e-01,1.09398e+00,-1.21419e+00,-1.03825e+00,-6.75150e-01,-6.75753e-01,-7.35900e-01,-7.87077e-01,-1.32201e+00,-5.05319e-01,8.71224e-01,-5.11592e-01,1.22577e+00,2.60711e-02,1.50019e+00,-1.17858e+00,9.44770e-01,-5.11535e-01,-8.74306e-01,-1.06610e+00,-6.92301e-01,1.43107e+00,-1.19658e+00,1.02053e+00,-6.22457e-01,-7.25174e-01,-5.36440e-01,-7.14771e-01,-1.00881e+00,1.78250e+00,-5.49424e-01,-1.26951e+00,
-8.51061e-01,1.07867e+00,-1.00278e+00,-7.58631e-01,-5.46559e-01,-7.23765e-01,-8.11782e-01,-7.11148e-01,-1.04149e+00,-6.58307e-01,8.28178e-01,-5.03515e-01,1.29432e+00,2.59151e-02,1.54764e+00,-1.14836e+00,9.94974e-01,-5.23513e-01,-9.03672e-01,-1.13257e+00,-7.85692e-01,1.42625e+00,-1.21031e+00,9.55059e-01,-7.04711e-01,-8.42384e-01,-6.26383e-01,-5.64058e-01,-1.01121e+00,1.71726e+00,-5.21208e-01,-1.17366e+00,
-9.04492e-01,1.06470e+00,-8.75189e-01,-9.06678e-01,-6.99406e-01,-6.83644e-01,-7.36167e-01,-7.22430e-01,-9.69033e-01,-7.61606e-01,9.93741e-01,-4.65881e-01,1.05763e+00,2.31363e-01,1.56044e+00,-1.02193e+00,1.12259e+00,-6.11359e-01,-8.40600e-01,-1.12757e+00,-7.80170e-01,1.47170e+00,-1.07693e+00,9.17019e-01,-6.50186e-01,-9.66980e-01,-7.01205e-01,-5.81799e-01,-1.10238e+00,1.74245e+00,-5.70628e-01,-1.38812e+00,
-8.51845e-01,1.00249e+00,-7.51955e-01,-9.16273e-01,-7.20666e-01,-8.61262e-01,-6.15256e-01,-8.96899e-01,-9.42255e-01,-8.09036e-01,1.10480e+00,-6.36157e-01,1.08056e+00,7.18107e-02,1.58147e+00,-9.36681e-01,1.09870e+00,-9.01319e-01,-7.64709e-01,-1.22927e+00,-6.78039e-01,1.41175e+00,-1.32696e+00,9.29876e-01,-5.03475e-01,-8.37815e-01,-5.54423e-01,-6.64647e-01,-1.03700e+00,1.69231e+00,-5.34738e-01,-1.01264e+00,
-4.88008e-01,9.78742e-01,-9.01420e-01,-8.63250e-01,-6.22193e-01,-5.86892e-01,-8.26008e-01,-6.28051e-01,-1.02531e+00,-7.70243e-01,1.00475e+00,-9.16363e-01,1.22345e+00,1.99531e-01,1.59783e+00,-1.01590e+00,1.05466e+00,-8.21208e-01,-7.61717e-01,-1.06744e+00,-6.67898e-01,1.46879e+00,-1.09975e+00,8.90784e-01,-5.43105e-01,-1.05010e+00,-5.94651e-01,-5.62935e-01,-1.15757e+00,1.60891e+00,-6.55531e-01,-1.25894e+00,
-6.69546e-01,9.74387e-01,-8.90885e-01,-8.25489e-01,-7.74625e-01,-6.49826e-01,-7.34756e-01,-1.08123e+00,-1.05911e+00,-7.06440e-01,9.13927e-01,-8.16205e-01,1.24435e+00,1.56029e-01,1.56516e+00,-9.29035e-01,1.02138e+00,-8.68652e-01,-7.31257e-01,-1.11510e+00,-7.10994e-01,1.55078e+00,-1.11937e+00,9.35353e-01,-5.06769e-01,-1.09773e+00,-6.35773e-01,-5.58707e-01,-1.09735e+00,1.61806e+00,-4.12304e-01,-9.70911e-01,
-7.81090e-01,9.72816e-01,-1.09783e+00,-7.73808e-01,-6.82439e-01,-4.81356e-01,-7.15756e-01,-1.03611e+00,-9.81340e-01,-6.51234e-01,9.25182e-01,-6.50853e-01,1.20679e+00,9.23483e-02,1.54691e+00,-1.18318e+00,1.10778e+00,-7.53744e-01,-8.08632e-01,-1.20560e+00,-7.65917e-01,1.51813e+00,-1.15020e+00,9.14633e-01,-4.10603e-01,-1.06616e+00,-5.64941e-01,-6.13217e-01,-8.91318e-01,1.66542e+00,-7.24346e-01,-1.01499e+00,
-7.10932e-01,1.01603e+00,-9.34207e-01,-9.03777e-01,-6.47950e-01,-4.95123e-01,-8.26371e-01,-9.04534e-01,-1.03619e+00,-6.84080e-01,7.78445e-01,-6.97446e-01,1.39190e+00,-8.10244e-02,1.53624e+00,-1.16862e+00,9.68869e-01,-5.66921e-01,-8.01435e-01,-9.81755e-01,-7.96184e-01,1.49143e+00,-1.08979e+00,9.59829e-01,-6.28369e-01,-1.09098e+00,-6.23011e-01,-6.57904e-01,-1.03215e+00,1.65693e+00,-5.97263e-01,-1.12622e+00,
-6.82144e-01,1.10411e+00,-1.14634e+00,-1.11597e+00,-5.09413e-01,-6.33637e-01,-8.99409e-01,-6.54348e-01,-9.49068e-01,-6.31594e-01,8.66649e-01,-3.22704e-01,1.23650e+00,-2.03846e-01,1.53784e+00,-1.16261e+00,9.75587e-01,-2.30367e-01,-9.13300e-01,-1.14728e+00,-9.07350e-01,1.37195e+00,-1.19185e+00,1.02083e+00,-6.77454e-01,-7.52901e-01,-6.37683e-01,-7.71021e-01,-1.11960e+00,1.78454e+00,-6.37759e-01,-1.31145e+00,
-8.06577e-01,1.07227e+00,-9.23262e-01,-8.59634e-01,-7.84080e-01,-8.42064e-01,-7.25531e-01,-4.52289e-01,-1.23956e+00,-5.22676e-01,9.98171e-01,-2.53159e-01,1.32507e+00,-1.17766e-01,1.52297e+00,-1.26072e+00,9.49464e-01,-4.33946e-01,-1.09566e+00,-1.16195e+00,-7.36705e-01,1.26430e+00,-1.34143e+00,9.48938e-01,-9.06079e-01,-9.22386e-01,-6.85700e-01,-4.91662e-01,-7.96028e-01,1.72814e+00,-5.65120e-01,-1.22060e+00,
-1.11413e+00,1.09832e+00,-1.03902e+00,-1.06032e+00,-8.09600e-01,-9.44096e-01,-6.05733e-01,-4.80579e-01,-9.68965e-01,-6.61783e-01,8.98722e-01,-4.85817e-01,1.13719e+00,-2.78448e-02,1.52295e+00,-8.92077e-01,1.09159e+00,-5.75914e-01,-7.87360e-01,-1.12656e+00,-7.84899e-01,1.43801e+00,-1.14009e+00,9.84670e-01,-8.83139e-01,-8.60116e-01,-5.75260e-01,-4.70333e-01,-6.64540e-01,1.72357e+00,-7.04449e-01,-1.45317e+00,
-1.27685e+00,1.05251e+00,-7.10933e-01,-8.79221e-01,-6.80834e-01,-7.33654e-01,-6.69340e-01,-4.87641e-01,-7.71232e-01,-8.34588e-01,1.01598e+00,-6.94088e-01,1.13128e+00,4.00001e-01,1.62321e+00,-8.95883e-01,9.89130e-01,-8.65437e-01,-6.60190e-01,-1.35613e+00,-6.99436e-01,1.41753e+00,-1.11365e+00,9.82714e-01,-6.74633e-01,-1.10136e+00,-6.16178e-01,-4.80540e-01,-9.84962e-01,1.64725e+00,-7.31683e-01,-1.25372e+00,
-1.09863e+00,1.04897e+00,-8.32825e-01,-7.53271e-01,-7.11912e-01,-9.22234e-01,-5.33406e-01,-7.57878e-01,-9.63534e-01,-7.28452e-01,8.87318e-01,-9.68700e-01,1.11965e+00,2.20272e-01,1.56429e+00,-1.03972e+00,1.09620e+00,-9.04034e-01,-7.34155e-01,-1.50735e+00,-5.84257e-01,1.62839e+00,-9.89318e-01,9.21345e-01,-2.63574e-01,-1.10039e+00,-5.97574e-01,-5.44678e-01,-9.74757e-01,1.61482e+00,-4.57015e-01,-1.13970e+00,
-1.04225e+00,9.33592e-01,-8.22634e-01,-1.03048e+00,-7.41184e-01,-5.18541e-01,-7.16017e-01,-1.05619e+00,-1.16413e+00,-6.03104e-01,9.10151e-01,-1.02080e+00,1.16355e+00,6.75582e-01,1.55450e+00,-1.09949e+00,1.07617e+00,-9.04844e-01,-7.26969e-01,-1.19479e+00,-7.51454e-01,1.65842e+00,-6.89325e-01,9.40226e-01,-2.66436e-01,-1.12217e+00,-3.39565e-01,-6.87571e-01,-1.24006e+00,1.59181e+00,-6.26437e-01,-1.05984e+00,
-4.31832e-01,8.77271e-01,-9.07936e-01,-1.25723e+00,-4.13304e-01,-5.34679e-01,-8.80181e-01,-6.63359e-01,-8.64291e-01,-5.28702e-01,1.06974e+00,-9.60053e-01,1.31729e+00,3.04418e-01,1.57105e+00,-1.05801e+00,8.58262e-01,-5.57548e-01,-6.36577e-01,-8.86111e-01,-8.89724e-01,1.47613e+00,-1.00834e+00,1.01949e+00,-5.72281e-01,-1.24277e+00,-6.23590e-01,-9.33724e-01,-1.36030e+00,1.54905e+00,-5.48056e-01,-1.19368e+00,
-5.89977e-01,9.38068e-01,-9.77461e-01,-1.28690e+00,-6.61639e-01,-6.46920e-01,-7.85853e-01,-7.86602e-01,-1.10617e+00,-6.48165e-01,6.40953e-01,-8.72453e-01,1.36372e+00,5.46587e-02,1.51783e+00,-1.11314e+00,1.22190e+00,-4.53707e-01,-6.04825e-01,-1.01875e+00,-7.15271e-01,1.56595e+00,-1.05177e+00,8.36529e-01,-5.58754e-01,-9.90670e-01,-5.20457e-01,-8.36123e-01,-1.19529e+00,1.71426e+00,-5.09370e-01,-1.06288e+00,
5.53818e-01,
1.97457e+00,
6.50653e-01,
1.80644e+00,
2.02053e+00,
1.16140e+00,
1.14705e+00,
1.14414e+00,
1.32359e+00,
3.18196e+00,
1.73180e+00,
1.08444e+00,
1.74588e+00,
3.18647e+00,
3.33483e+00,
4.40596e+00,
4.21138e+00,
