// Neural Network File Format by Kyle Julian, Stanford 2016
3,8,17,32,
8,32,32,17,
0,
0
0
0
0
-0.43133485,-1.45453191,-0.60212553,0.81906617,-0.19425172,0.77963585,-1.45339763,0.88354963,
0.12350860,-0.01694386,0.53744209,-1.08894598,0.35120219,0.26580685,0.54844618,-0.70855802,
-1.45971358,0.74644351,0.63050658,-0.36861968,0.35150474,0.67236733,0.67723006,0.35392001,
0.26496592,-0.14060657,0.35745978,1.12322032,-1.20821798,-0.40343696,0.10524713,1.27223265,
0.19096805,0.24058437,0.29751736,0.88999122,0.63052016,-1.28464711,0.54241556,0.60974693,
-1.09612560,0.89458352,-2.26657009,-0.20382370,0.07103374,0.63528442,-0.81724828,0.52863586,
0.34332818,0.15348053,0.45895034,-0.79084134,-0.92793828,0.03589264,0.28042331,-0.81434578,
1.66767347,0.81216234,-1.09926307,0.10270977,1.13437545,0.77759802,-0.28753617,0.29881287,
0.03528754,0.04258166,1.56150162,0.37834302,-1.04242456,-0.41662124,0.07540420,0.19230951,
0.58575571,-1.24050999,0.95742619,0.66429770,0.87147713,-1.92804933,1.72372103,0.44778508,
-0.32840654,-0.06848105,-1.92820215,-0.43698931,0.68855083,0.30951086,-1.15537405,-0.00966648,
0.05236393,0.00353477,0.20779637,-0.67027527,0.39805841,0.60348773,-0.19627786,-0.95339239,
-0.66064078,0.59748095,-0.57836163,-0.49557745,-2.04194999,1.04261506,-0.57725370,-0.72154725,
-1.32215619,0.91772521,-1.66616452,-0.62171996,-0.10916889,0.83294028,-0.37884757,0.41304156,
0.14831722,1.86545908,-0.38213035,-0.74273771,-0.36542958,0.26644915,0.18753755,-0.38824767,
0.35968328,0.45900998,1.11959004,1.13534641,0.76074857,-0.83521670,0.50153267,0.71388465,
0.77604109,2.20128775,-0.68854403,-0.59174418,0.58697289,0.21093771,-0.32487845,-0.26441747,
-0.21622559,2.00709391,-0.24882534,-0.60560232,-0.17072688,0.06320716,0.73768407,-0.13026941,
0.03367517,-0.04826728,0.26501009,-1.05015171,-0.69026291,-0.15795425,0.14417440,-1.06657672,
0.45781425,2.00472569,1.63834107,0.58764952,0.62495124,0.92055547,1.19424641,0.75800067,
0.51528436,0.21541291,1.83008242,0.36348864,-0.47741020,-0.00805283,0.27705362,-0.10136516,
0.10955747,0.10924453,1.02264309,-0.88917768,-0.20360593,0.35657033,-0.05817513,-0.67341852,
-0.19349481,0.47912103,1.31833899,0.22290932,-0.11647170,-0.69164222,-0.83384919,-0.41528943,
0.35349420,0.17105250,1.12570798,-0.86891311,-0.29801798,0.32361913,0.55097806,-0.98872399,
2.58587933,-2.43902493,-0.19689442,0.25313449,-0.34935877,0.72406536,-0.23715559,0.10911150,
2.35816908,-2.25819969,0.13215142,-0.55771297,-0.49308041,1.26344275,0.15006925,-0.13661754,
0.30727670,-0.90815222,-1.69950616,1.87111437,0.99596435,-0.66802311,-1.25834119,1.84750640,
-0.22149618,0.97342378,-0.61207128,1.56415665,1.17450404,0.05759637,0.39471194,1.24294317,
-0.07688883,0.05378611,-1.00895762,-0.98432297,0.85252047,0.32611814,-0.06443775,0.62269121,
-1.90948772,0.83539361,2.60041785,-0.36851227,0.25269324,-0.15307514,2.26461697,0.73558116,
-2.88813210,-0.81682301,1.26186895,0.66101921,-1.90714896,-0.37486827,0.99885219,1.12565768,
-1.20424175,-0.12357461,-0.01035552,-0.64368391,-0.46677810,1.14794040,-0.92985082,-1.36146986,
4.37534475,
-3.84721708,
2.71091342,
-2.52164245,
-3.75837636,
-1.25795734,
-2.94567561,
3.51163483,
-3.56406689,
5.23244762,
-2.47170019,
-3.16900253,
-1.61881077,
-2.56642008,
2.11891460,
-2.68892121,
2.09515882,
2.22904181,
-2.90885162,
-2.19971466,
-4.46421957,
-3.48178482,
-4.12204695,
-3.36313915,
6.98086596,
4.77952766,
3.84181833,
-2.76243925,
-2.80754209,
5.08864594,
5.70070934,
5.38091707,
-1.15868521,1.26275563,-1.52410638,-0.84351838,0.77466679,0.60374027,0.11977517,-0.56061161,0.56366926,-0.02240614,0.98306280,1.02984166,0.78325504,0.93384141,-1.15975237,0.79486889,-0.89901447,-1.12151587,0.35518920,0.26385859,0.77630234,1.06809616,1.23633063,0.68388313,0.43127599,0.50524682,-0.42148042,-0.76011616,0.99522078,0.11800359,-0.70042229,-0.93307227,
1.33939064,0.00599574,1.43698907,0.18700396,0.25495741,0.33663118,-0.90912676,1.87091076,-0.41109776,-0.73044878,0.65026176,-0.09638693,0.61457467,-0.19832829,1.76410711,0.13540679,2.17998624,1.60788763,-0.90874869,0.93966168,-1.76522028,-0.23816516,-0.56053257,-0.46886298,-1.08951843,-1.48633671,-0.13793637,-0.70268768,0.57781124,1.57539105,2.02201533,2.03106213,
-0.45643577,0.48416215,-0.29023376,0.22973578,0.47928500,1.03845167,0.35220292,-0.22188316,1.07604182,-0.84684116,0.92478210,0.29553172,0.58190435,1.03718793,-0.66869366,0.81014675,-0.91272289,-0.35854575,0.21052603,0.39207292,0.90991300,0.21094961,0.19976667,0.38989839,-0.56191307,-0.42051604,0.32099575,1.48666167,0.79655570,-0.24133916,-0.76928174,-1.26871336,
-0.32691318,-0.06273785,-0.24890810,0.64335114,0.70418537,0.91252548,0.33158040,-0.45138273,1.31025946,-1.05190551,0.90444994,0.09403535,0.82736653,1.16088676,-0.31052074,0.91128123,-0.89704800,-0.23780942,-0.28125548,0.58546376,1.01078868,0.03672412,0.72511762,0.42874420,-0.75007194,-0.51831400,0.36482027,1.37888300,0.08800129,-0.45167491,-0.77175426,-0.61928004,
-0.68808651,0.55831951,-0.49639285,0.13534030,1.08077753,1.04183674,0.32575879,-0.14762361,1.03421128,-0.25526577,0.53930843,0.35180894,0.10720651,1.08368790,-0.55884838,0.91805953,-0.54543936,-0.51611871,0.22609980,0.41248330,1.31120455,0.62892467,0.95608282,0.67058182,0.12201241,0.21502809,0.11517870,1.23531699,0.86694831,-0.30520794,-0.76785105,-1.28841686,
-0.56283718,0.44482851,-1.24423730,0.96106231,0.53941053,0.47725093,0.69731486,-1.07373047,1.10699260,-0.29829410,0.86149800,0.71223283,1.42810965,1.22536874,-0.66733563,0.43181694,-1.00912249,-0.61862206,0.25365117,0.70471412,0.42127052,0.73507059,0.99721861,0.71068949,0.10533262,0.52583277,-0.52114934,-0.45855433,0.80341578,0.09061674,0.41486263,-0.66269189,
-1.07732487,0.76235265,-0.29186666,0.24532208,0.28959706,0.50154126,0.34142098,-0.23292424,1.08276951,-0.00086529,0.54952192,0.82352674,0.63203245,1.24299979,-0.59035087,0.78456324,-0.75921220,-0.90812129,-0.14784104,0.75376803,0.82856661,0.76267338,0.81563807,0.52691817,0.01692516,0.01638956,-0.66093266,0.79523170,1.10046983,-0.05094935,-0.99862200,-0.75847733,
-0.10287250,0.19593327,-0.56231302,0.83035833,0.49240288,1.05555391,0.56267053,-0.71772826,1.28445137,-0.14438766,0.71130300,0.19194032,0.88067746,1.22858655,-0.38918751,0.50839108,-1.06198430,-0.24308763,0.39106098,0.49086362,0.91538507,0.62655556,0.93869567,0.64630300,0.10274275,-0.01208187,0.05891368,0.57102782,-0.05939244,-0.23469664,0.04410262,-0.75171399,
-0.80956638,1.03506219,-1.56943607,-0.20868352,0.70035756,1.52476668,0.33530328,-1.01137662,0.92208606,-0.70065325,1.04764855,1.05562222,0.94103068,1.10574841,-1.25580311,0.85607994,-1.10244727,-1.24991047,0.68178457,0.45632729,0.55428374,1.12276363,1.47628009,0.86651450,-0.15196200,0.38637698,-1.22124755,0.50027704,0.97324300,0.06482663,-0.68815321,-1.28182685,
-0.38343382,0.42336169,-0.66206199,0.70090532,1.13975453,0.75133187,0.56360126,0.07799101,1.15379393,-0.35722515,0.75597435,0.56550920,0.12859343,1.11231017,-0.57075822,0.85650969,-0.52410728,-0.62534195,0.15264018,0.34949869,0.83539158,0.66452050,0.88859355,0.53427875,0.18000297,0.36693990,-0.02880253,1.24432087,1.24005151,-0.38690895,-0.34265915,-0.80592495,
1.49574172,-0.23622738,0.90394086,0.31050190,-0.24306181,0.63270760,-0.31282437,1.08362889,-0.44941792,1.69572794,0.25876898,0.01476151,0.64587873,-0.13812777,1.44778585,-0.09937248,1.69993508,1.18525338,-0.02863235,0.44163913,-0.94379544,-0.54410696,-0.79237872,-0.32797423,0.57618612,0.38300803,1.20167410,0.16020562,0.19346392,1.33852983,2.14230633,1.99541593,
-0.21765190,0.37898919,-0.68016499,1.07845259,0.75383252,0.79827613,0.01061474,0.13350920,1.40608871,-0.04017434,0.65830368,0.37658909,0.99200052,1.27208412,-0.68286902,0.88712120,-0.96525043,-0.46377805,0.00235948,0.70466268,1.04392695,0.83699673,1.42333138,0.71404505,0.09518566,0.33899814,-0.47789788,0.67556399,0.36728308,-0.10027733,-0.44804761,-0.31073058,
1.70027423,-0.25798625,1.18367505,0.33417320,-0.10166786,0.37953231,-0.02813058,1.80384862,-0.56409621,2.38214803,0.37356430,0.03754993,0.80301130,-0.32740191,1.84676206,0.13580592,2.20275974,1.93948948,0.31572136,0.53173155,-0.74526590,-0.62060422,-1.23191631,-0.31674090,0.81346089,0.53117353,1.10668957,-0.03456067,-0.19826187,1.36499155,1.85016584,2.61820650,
-0.80053151,0.07714583,0.05007673,-0.25030348,-0.05775307,-0.00795908,-0.21034741,-0.15110752,-1.30220759,-0.05458616,0.01958477,0.26491618,0.04742796,0.32589602,0.02513404,-0.18682182,0.33066186,0.16632190,0.13142888,0.02541794,-0.11572339,-0.05581667,-0.24600120,-0.16446295,-0.08959477,-0.17357515,-0.38187382,0.10285261,0.42313090,0.01184734,-0.33103776,0.02566149,
-0.28910029,-0.19261427,-1.95780694,-1.64865649,-0.86425132,-0.11705826,0.26806816,1.34296131,-2.32047439,2.56811690,0.06596644,0.14582500,-0.43955749,-1.10947526,0.23623843,-0.84627652,0.73108953,-0.19996297,-0.17303759,-0.16724989,0.77931613,-0.74226040,-1.49405980,-0.14998946,1.91829181,1.88709223,1.15666628,-0.29423782,0.26403394,-1.92237008,-0.93215817,0.79430807,
-0.25200582,-0.21410833,0.14398386,0.85181516,0.83772695,1.19442856,0.25132915,-0.70216352,1.50487113,-0.80855340,0.85369337,-0.23301950,1.09800708,1.40245450,-0.24466501,1.02659523,-0.96919608,-0.06368481,-0.11521057,0.48003328,0.84024566,0.37192392,0.82760966,0.37391952,-0.64322233,-0.53221166,0.02787722,1.51085079,0.03455449,-0.07122531,-0.43037787,-0.91297615,
1.71248543,-0.35421136,1.36701345,0.61890841,0.41127759,0.08643844,-1.47151387,2.00320983,-0.21805114,0.03007851,0.45069450,-0.38327941,0.44517785,-0.19425227,1.84692407,0.53510648,2.25695038,1.88229060,-1.05552769,0.99826628,-1.55056143,-0.64570498,-0.60214078,-0.77079207,-0.53685260,-0.75451624,0.81842875,-0.25528321,0.55309564,1.72993410,2.00881648,2.25144625,
-0.89540505,0.36107492,-0.43762591,0.81926483,0.28001767,0.36675331,0.30535483,0.01944252,1.46340454,0.06073750,0.48448572,0.56468791,1.12245679,1.07947946,-0.37625790,0.38500583,-0.68873584,-0.90215063,-0.07612847,0.83249491,1.14056480,0.79768968,1.23794186,0.58285481,0.08821458,0.20367904,0.08102004,0.50232798,0.16814172,-0.11291285,-0.78245884,-0.74106932,
-0.66907501,0.78622657,-1.12092006,0.59986871,0.60603654,0.87426662,0.58970618,0.22370917,0.68075955,-0.32722691,1.00570190,0.81001389,1.10777879,1.31120062,-0.65848023,0.97430807,-0.94515407,-0.73071170,0.60291386,0.46544340,0.40258253,0.88715893,0.62416852,0.69165277,-0.01931698,0.36235866,0.19986819,1.21586668,1.69294560,0.15883562,0.24722458,-1.01127779,
-0.21930166,0.24641402,-0.15520500,0.39487812,0.76216620,0.93116707,0.37673488,-0.45625430,1.28228915,-1.08527863,0.90820456,0.37586674,0.79641253,1.18030155,-0.33747324,1.15689003,-0.76394928,-0.72290152,0.05233432,0.40983891,1.49084353,0.34602290,0.46515220,0.46308103,-0.95252579,-0.48359787,0.18106835,1.49415815,-0.14609469,-0.61779064,-1.28862429,-1.30848491,
-0.72175050,0.36018804,-1.01415086,1.03924894,0.49517360,0.68082500,0.35981297,-1.13062334,1.18456769,-0.20710799,0.96023446,0.73463482,1.08223701,1.31181812,-0.83666116,0.65453660,-1.30570328,-0.95045561,0.16042480,0.39132884,0.79444808,0.59500659,1.39655364,0.42346162,0.10889997,0.59603274,-0.58066869,-0.34427214,0.56771123,0.00375524,-0.02403785,-0.62667650,
1.40378594,-0.05211361,0.32814929,0.01700103,-0.30905065,0.51420879,0.20062420,0.25183621,-1.19542670,2.48447776,0.32678276,0.11128698,0.20837085,-0.15690053,0.58326560,-0.57473207,0.72706777,0.67891520,0.36974016,-0.34991774,-0.49868381,-0.38038263,-1.39257491,-0.13120072,1.22152019,1.05531240,1.03425455,-0.72997546,0.22929044,0.69748956,2.05304980,2.55570698,
-0.34671822,0.44937995,-0.86993968,0.85918647,0.99040395,0.97784460,0.35908279,-0.44894934,1.33076608,-0.70282459,0.76834494,0.46184239,1.21716225,1.22614253,-0.50453967,1.14763510,-1.05642462,-0.42044708,0.15763524,0.94999331,0.66901475,0.08942072,0.85735834,0.46288314,-0.99292988,-0.63768440,-0.28661609,1.30025625,0.25799352,-0.34719083,-0.84153008,-1.37991250,
1.59965384,-0.22511803,1.08343518,0.41572002,0.06912265,0.39193794,-1.46740925,1.42406392,-0.38055930,0.32083336,0.47120821,-0.27050227,0.73229432,-0.30341402,1.44262826,0.19915749,2.02867484,1.50685525,-0.87989867,0.77203333,-1.82020986,-0.52212572,-0.57937610,-0.90514505,-0.51476705,-0.70584762,1.11249804,-0.18457635,0.61066777,1.46067357,2.27000189,1.66080379,
-0.24922174,0.45122147,-0.35546061,0.52780825,1.27706254,1.00756800,0.63546968,-1.48568571,0.89882439,-0.56139559,1.07621515,0.45670161,0.81409401,1.38572204,-0.37063530,0.99171728,-0.93452436,-0.36808756,0.66815829,0.32252923,0.35902002,0.45414954,0.60282427,0.55503798,0.08824071,0.37757933,0.26083714,0.56671745,0.58932030,-0.18800671,-0.18949434,-0.28639871,
-0.52804953,0.42820588,-0.25865570,0.23704390,0.95842004,1.29364276,0.16552413,-0.30257416,1.23694146,-0.94954962,0.99561167,0.45196393,0.54453224,1.02584934,-0.53466845,1.29732120,-0.84787446,-0.75356859,0.01707350,0.45593968,1.20217991,0.41169614,0.12054688,0.44619316,-0.66127920,-0.48248219,0.38726169,1.36412776,0.89546949,-0.21468683,-1.04585481,-1.34241581,
-0.41151327,0.53193629,-0.26422819,0.40695766,0.95337033,0.71066839,0.79990488,-0.70322406,0.90635794,-0.27752665,0.49434850,0.51275676,0.40859357,1.28006399,-0.57872969,0.83390665,-1.07505798,-0.61132663,0.49746326,0.38229719,0.85702062,0.56654412,1.17048132,0.70934170,0.04398048,0.26953036,0.09714539,0.90387136,0.76497585,-0.00925951,-0.15794270,-0.44587436,
-0.28151414,0.55448383,-0.42573315,0.70253795,1.09361887,0.84337902,0.18373427,-0.03734116,0.95387173,-0.42109433,0.68691897,0.43207213,0.19882509,0.83537579,-0.43951577,1.01485670,-0.40938100,-0.77031273,0.18428145,-0.05038624,0.84486043,0.61031091,0.14824726,0.58018357,0.21208863,0.24215034,0.44454989,1.51915824,1.35095656,-0.17898585,-0.42750272,-0.71289331,
-0.53635651,0.85337746,-1.99336827,0.11630537,0.58408296,1.29198456,0.82530177,-1.16190815,0.89956915,-0.54165733,1.06715822,0.71182042,0.90195274,0.98609728,-0.92646056,1.19071913,-0.95293778,-1.56961107,0.76130188,0.57536495,1.01399910,0.99328589,1.80989242,0.91716671,-0.16443363,0.24993545,-1.00355852,0.61278695,0.31695533,0.03311396,-0.64545953,-1.00743723,
0.49485421,-0.47945979,-1.73379886,-0.26058459,0.16174516,-1.04608631,0.25957882,1.98986411,-1.51482332,2.54562688,-1.17966485,-0.48353547,1.35284042,-2.62642217,1.14213359,-0.54472226,1.41201007,0.18203023,0.50905651,-1.25673795,0.17168781,-0.59546429,-1.47081387,0.32539552,1.83370388,1.75354981,1.62460291,0.12617879,-1.58180463,-1.04129863,1.12903726,0.76241058,
0.03025373,0.48534346,-0.45749423,0.75341839,0.98327380,0.81599087,0.58495766,-0.88409978,1.04993594,-0.29130906,0.59104824,0.33553439,0.47809288,1.30465508,-0.45126444,0.79101294,-0.96589959,-0.22367042,0.44359130,0.32921425,0.83172393,0.86989427,1.49730456,0.67497945,0.05743027,0.16629158,-0.14293817,0.84143209,0.49266294,-0.07469844,-0.16371931,-0.47879741,
-0.17471419,0.30561131,-0.13874765,0.48435137,1.30363762,1.01610327,0.16071352,-0.60665786,0.95942599,-1.01929605,0.69236916,0.34293666,1.04955089,0.99002087,-0.47485787,1.26511812,-0.78429884,-0.45294854,0.25176132,0.56162584,1.14878345,0.12708688,0.61054850,0.36076903,-0.78013325,-0.33086199,-0.20583519,1.35229850,-0.05543990,-0.50358486,-0.82047373,-1.37522495,
-2.46528602,
5.57214546,
-2.75809073,
-3.43616605,
-4.45374632,
-3.26466227,
-4.68813896,
-5.00338507,
-3.02743483,
-4.57452488,
7.50481653,
-5.42886829,
7.99897194,
0.15374203,
7.33360291,
-3.76038241,
6.45534563,
-2.94705296,
-3.35374117,
-3.07985687,
-4.20507097,
8.02343845,
-2.27788615,
6.59717989,
-3.26095581,
-2.81751752,
-4.91048336,
-4.88285160,
-3.33223414,
7.59193659,
-4.95520973,
-3.03791094,
-0.79874390,1.02154601,-0.81295985,-1.19316661,-0.61222714,-0.66606146,-0.78366286,-0.75055373,-0.92000431,-0.65809071,0.83551598,-0.71187371,1.15101075,0.32626691,1.53866601,-0.94704020,1.16752219,-0.48623410,-0.73359460,-1.23223937,-0.75207633,1.52297091,-1.15046680,0.88362455,-0.54184806,-0.99865669,-0.59891069,-0.71455598,-1.02086687,1.69760835,-0.58172750,-1.14044821,
-0.81459528,1.09398091,-1.21418560,-1.03825080,-0.67515016,-0.67575318,-0.73590046,-0.78707683,-1.32200754,-0.50531900,0.87122369,-0.51159185,1.22577226,0.02607110,1.50019264,-1.17858243,0.94476980,-0.51153469,-0.87430638,-1.06609774,-0.69230121,1.43106973,-1.19657648,1.02053440,-0.62245661,-0.72517449,-0.53643996,-0.71477062,-1.00881314,1.78249574,-0.54942358,-1.26950824,
-0.85106111,1.07866585,-1.00277901,-0.75863057,-0.54655898,-0.72376466,-0.81178230,-0.71114808,-1.04149044,-0.65830749,0.82817751,-0.50351512,1.29431593,0.02591510,1.54764342,-1.14836466,0.99497396,-0.52351302,-0.90367168,-1.13256574,-0.78569186,1.42625260,-1.21030807,0.95505881,-0.70471078,-0.84238374,-0.62638277,-0.56405771,-1.01120925,1.71726370,-0.52120787,-1.17365789,
-0.90449208,1.06469584,-0.87518942,-0.90667820,-0.69940561,-0.68364352,-0.73616719,-0.72242963,-0.96903330,-0.76160568,0.99374092,-0.46588051,1.05762839,0.23136269,1.56044352,-1.02192640,1.12259376,-0.61135930,-0.84060013,-1.12757111,-0.78017032,1.47170162,-1.07693124,0.91701853,-0.65018642,-0.96698028,-0.70120454,-0.58179945,-1.10238194,1.74245107,-0.57062846,-1.38812053,
-0.85184491,1.00249350,-0.75195521,-0.91627347,-0.72066587,-0.86126196,-0.61525589,-0.89689893,-0.94225502,-0.80903649,1.10479736,-0.63615692,1.08056378,0.07181067,1.58146966,-0.93668103,1.09870136,-0.90131867,-0.76470888,-1.22927499,-0.67803854,1.41175413,-1.32695758,0.92987561,-0.50347471,-0.83781523,-0.55442256,-0.66464686,-1.03699791,1.69230855,-0.53473753,-1.01264179,
-0.48800847,0.97874212,-0.90141988,-0.86324960,-0.62219346,-0.58689189,-0.82600838,-0.62805098,-1.02531338,-0.77024263,1.00474620,-0.91636318,1.22345316,0.19953060,1.59783268,-1.01590097,1.05466449,-0.82120794,-0.76171690,-1.06744456,-0.66789842,1.46879470,-1.09975386,0.89078403,-0.54310542,-1.05009651,-0.59465063,-0.56293458,-1.15757239,1.60890555,-0.65553105,-1.25893843,
-0.66954637,0.97438657,-0.89088470,-0.82548875,-0.77462542,-0.64982581,-0.73475599,-1.08122706,-1.05911100,-0.70643979,0.91392672,-0.81620514,1.24435019,0.15602924,1.56515551,-0.92903543,1.02138090,-0.86865240,-0.73125696,-1.11509848,-0.71099377,1.55078113,-1.11936641,0.93535346,-0.50676870,-1.09772837,-0.63577265,-0.55870742,-1.09735036,1.61806428,-0.41230357,-0.97091144,
-0.78108984,0.97281617,-1.09783435,-0.77380776,-0.68243933,-0.48135570,-0.71575564,-1.03610539,-0.98134035,-0.65123415,0.92518240,-0.65085334,1.20678759,0.09234831,1.54690647,-1.18318176,1.10778189,-0.75374418,-0.80863196,-1.20560002,-0.76591712,1.51813388,-1.15019941,0.91463339,-0.41060320,-1.06616306,-0.56494123,-0.61321712,-0.89131778,1.66542470,-0.72434622,-1.01499426,
-0.71093160,1.01603007,-0.93420738,-0.90377718,-0.64794952,-0.49512288,-0.82637095,-0.90453434,-1.03618777,-0.68407959,0.77844465,-0.69744641,1.39190447,-0.08102438,1.53624094,-1.16862154,0.96886933,-0.56692094,-0.80143487,-0.98175484,-0.79618371,1.49142921,-1.08978856,0.95982903,-0.62836939,-1.09098327,-0.62301099,-0.65790445,-1.03215098,1.65692890,-0.59726316,-1.12622201,
-0.68214375,1.10411060,-1.14633954,-1.11597466,-0.50941306,-0.63363737,-0.89940947,-0.65434754,-0.94906777,-0.63159382,0.86664921,-0.32270393,1.23650467,-0.20384587,1.53783929,-1.16260886,0.97558743,-0.23036735,-0.91329992,-1.14728320,-0.90735012,1.37194705,-1.19184697,1.02083290,-0.67745435,-0.75290054,-0.63768280,-0.77102131,-1.11959970,1.78453553,-0.63775861,-1.31145263,
-0.80657721,1.07226765,-0.92326242,-0.85963416,-0.78407961,-0.84206408,-0.72553086,-0.45228884,-1.23955607,-0.52267581,0.99817067,-0.25315937,1.32506609,-0.11776555,1.52297437,-1.26072335,0.94946361,-0.43394592,-1.09565604,-1.16195035,-0.73670506,1.26429713,-1.34142709,0.94893777,-0.90607858,-0.92238593,-0.68570018,-0.49166185,-0.79602778,1.72814012,-0.56511962,-1.22060478,
-1.11413419,1.09831965,-1.03901732,-1.06031585,-0.80959958,-0.94409603,-0.60573316,-0.48057854,-0.96896452,-0.66178298,0.89872229,-0.48581740,1.13718832,-0.02784481,1.52295458,-0.89207667,1.09159303,-0.57591438,-0.78736043,-1.12656009,-0.78489852,1.43800712,-1.14008677,0.98467034,-0.88313895,-0.86011636,-0.57525951,-0.47033313,-0.66454011,1.72357321,-0.70444864,-1.45317388,
-1.27684653,1.05251038,-0.71093255,-0.87922132,-0.68083435,-0.73365396,-0.66933978,-0.48764062,-0.77123219,-0.83458805,1.01597977,-0.69408840,1.13128233,0.40000099,1.62321401,-0.89588296,0.98912990,-0.86543667,-0.66019028,-1.35612774,-0.69943625,1.41753018,-1.11365390,0.98271435,-0.67463344,-1.10136139,-0.61617839,-0.48053971,-0.98496228,1.64724529,-0.73168319,-1.25372016,
-1.09862781,1.04896796,-0.83282501,-0.75327092,-0.71191221,-0.92223412,-0.53340614,-0.75787830,-0.96353388,-0.72845203,0.88731843,-0.96869993,1.11965382,0.22027244,1.56428540,-1.03971660,1.09619570,-0.90403408,-0.73415506,-1.50735271,-0.58425725,1.62838745,-0.98931831,0.92134488,-0.26357374,-1.10038745,-0.59757400,-0.54467827,-0.97475749,1.61481738,-0.45701507,-1.13969588,
-1.04225087,0.93359226,-0.82263398,-1.03048372,-0.74118376,-0.51854146,-0.71601743,-1.05618930,-1.16413331,-0.60310382,0.91015083,-1.02079713,1.16354942,0.67558151,1.55449724,-1.09948850,1.07616520,-0.90484434,-0.72696859,-1.19479263,-0.75145370,1.65842330,-0.68932503,0.94022584,-0.26643628,-1.12216783,-0.33956519,-0.68757135,-1.24005866,1.59181118,-0.62643725,-1.05984390,
-0.43183246,0.87727141,-0.90793592,-1.25723433,-0.41330448,-0.53467852,-0.88018060,-0.66335934,-0.86429095,-0.52870220,1.06973886,-0.96005332,1.31729126,0.30441836,1.57104897,-1.05800664,0.85826248,-0.55754799,-0.63657683,-0.88611054,-0.88972414,1.47612798,-1.00833607,1.01949215,-0.57228065,-1.24277246,-0.62358969,-0.93372434,-1.36029637,1.54905021,-0.54805553,-1.19367874,
-0.58997732,0.93806845,-0.97746056,-1.28689647,-0.66163898,-0.64692014,-0.78585279,-0.78660202,-1.10616755,-0.64816499,0.64095312,-0.87245262,1.36371517,0.05465873,1.51783323,-1.11313748,1.22190285,-0.45370686,-0.60482526,-1.01874864,-0.71527052,1.56594789,-1.05176926,0.83652896,-0.55875432,-0.99067014,-0.52045709,-0.83612287,-1.19529319,1.71426141,-0.50936985,-1.06287861,
0.55381805,
1.97457230,
0.65065312,
1.80644178,
2.02053308,
1.16140246,
1.14704549,
1.14414275,
1.32358539,
3.18195844,
1.73179853,
1.08444262,
1.74588072,
3.18646932,
3.33482909,
4.40595961,
4.21137810,
